digraph Tree {
node [shape=box] ;
0 [label="X[2] <= 82969456.0\ngini = 0.4999\nsamples = 44030\nvalue = [21759, 22271]"] ;
1 [label="X[12] <= 95175776.0\ngini = 0.4979\nsamples = 9194\nvalue = [4892, 4302]"] ;
0 -> 1 [labeldistance=2.5, labelangle=45, headlabel="True"] ;
2 [label="X[7] <= 124782040.0\ngini = 0.4924\nsamples = 3968\nvalue = [2229, 1739]"] ;
1 -> 2 ;
3 [label="X[13] <= 70193488.0\ngini = 0.4906\nsamples = 3777\nvalue = [2147, 1630]"] ;
2 -> 3 ;
4 [label="X[12] <= 71645120.0\ngini = 0.4417\nsamples = 246\nvalue = [165, 81]"] ;
3 -> 4 ;
5 [label="X[2] <= 68827856.0\ngini = 0.4999\nsamples = 75\nvalue = [37, 38]"] ;
4 -> 5 ;
6 [label="X[8] <= 67637168.0\ngini = 0.464\nsamples = 41\nvalue = [26, 15]"] ;
5 -> 6 ;
7 [label="gini = 0.0\nsamples = 4\nvalue = [0, 4]"] ;
6 -> 7 ;
8 [label="X[13] <= 65065696.0\ngini = 0.4178\nsamples = 37\nvalue = [26, 11]"] ;
6 -> 8 ;
9 [label="gini = 0.0\nsamples = 3\nvalue = [0, 3]"] ;
8 -> 9 ;
10 [label="X[6] <= 65896316.0\ngini = 0.3599\nsamples = 34\nvalue = [26, 8]"] ;
8 -> 10 ;
11 [label="gini = 0.0\nsamples = 11\nvalue = [11, 0]"] ;
10 -> 11 ;
12 [label="X[1] <= 70190272.0\ngini = 0.4537\nsamples = 23\nvalue = [15, 8]"] ;
10 -> 12 ;
13 [label="gini = 0.0\nsamples = 3\nvalue = [0, 3]"] ;
12 -> 13 ;
14 [label="X[1] <= 127566144.0\ngini = 0.375\nsamples = 20\nvalue = [15, 5]"] ;
12 -> 14 ;
15 [label="X[7] <= 63174768.0\ngini = 0.2778\nsamples = 18\nvalue = [15, 3]"] ;
14 -> 15 ;
16 [label="X[3] <= 122997032.0\ngini = 0.4444\nsamples = 3\nvalue = [1, 2]"] ;
15 -> 16 ;
17 [label="gini = 0.0\nsamples = 2\nvalue = [0, 2]"] ;
16 -> 17 ;
18 [label="gini = 0.0\nsamples = 1\nvalue = [1, 0]"] ;
16 -> 18 ;
19 [label="X[32] <= 0.5\ngini = 0.1244\nsamples = 15\nvalue = [14, 1]"] ;
15 -> 19 ;
20 [label="gini = 0.0\nsamples = 14\nvalue = [14, 0]"] ;
19 -> 20 ;
21 [label="gini = 0.0\nsamples = 1\nvalue = [0, 1]"] ;
19 -> 21 ;
22 [label="gini = 0.0\nsamples = 2\nvalue = [0, 2]"] ;
14 -> 22 ;
23 [label="X[7] <= 70792112.0\ngini = 0.4377\nsamples = 34\nvalue = [11, 23]"] ;
5 -> 23 ;
24 [label="X[7] <= 64225800.0\ngini = 0.5\nsamples = 20\nvalue = [10, 10]"] ;
23 -> 24 ;
25 [label="X[5] <= 71470768.0\ngini = 0.3967\nsamples = 11\nvalue = [3, 8]"] ;
24 -> 25 ;
26 [label="X[30] <= 0.5\ngini = 0.1975\nsamples = 9\nvalue = [1, 8]"] ;
25 -> 26 ;
27 [label="gini = 0.0\nsamples = 8\nvalue = [0, 8]"] ;
26 -> 27 ;
28 [label="gini = 0.0\nsamples = 1\nvalue = [1, 0]"] ;
26 -> 28 ;
29 [label="gini = 0.0\nsamples = 2\nvalue = [2, 0]"] ;
25 -> 29 ;
30 [label="X[5] <= 65835704.0\ngini = 0.3457\nsamples = 9\nvalue = [7, 2]"] ;
24 -> 30 ;
31 [label="gini = 0.0\nsamples = 6\nvalue = [6, 0]"] ;
30 -> 31 ;
32 [label="X[7] <= 69754440.0\ngini = 0.4444\nsamples = 3\nvalue = [1, 2]"] ;
30 -> 32 ;
33 [label="gini = 0.0\nsamples = 2\nvalue = [0, 2]"] ;
32 -> 33 ;
34 [label="gini = 0.0\nsamples = 1\nvalue = [1, 0]"] ;
32 -> 34 ;
35 [label="X[13] <= 65241264.0\ngini = 0.1327\nsamples = 14\nvalue = [1, 13]"] ;
23 -> 35 ;
36 [label="gini = 0.0\nsamples = 1\nvalue = [1, 0]"] ;
35 -> 36 ;
37 [label="gini = 0.0\nsamples = 13\nvalue = [0, 13]"] ;
35 -> 37 ;
38 [label="X[10] <= 137576464.0\ngini = 0.3765\nsamples = 171\nvalue = [128, 43]"] ;
4 -> 38 ;
39 [label="X[13] <= 65146860.0\ngini = 0.3675\nsamples = 169\nvalue = [128, 41]"] ;
38 -> 39 ;
40 [label="X[5] <= 71690688.0\ngini = 0.0907\nsamples = 21\nvalue = [20, 1]"] ;
39 -> 40 ;
41 [label="gini = 0.0\nsamples = 1\nvalue = [0, 1]"] ;
40 -> 41 ;
42 [label="gini = 0.0\nsamples = 20\nvalue = [20, 0]"] ;
40 -> 42 ;
43 [label="X[10] <= 93870696.0\ngini = 0.3944\nsamples = 148\nvalue = [108, 40]"] ;
39 -> 43 ;
44 [label="X[7] <= 63826416.0\ngini = 0.5\nsamples = 18\nvalue = [9, 9]"] ;
43 -> 44 ;
45 [label="gini = 0.0\nsamples = 5\nvalue = [5, 0]"] ;
44 -> 45 ;
46 [label="X[5] <= 80510976.0\ngini = 0.426\nsamples = 13\nvalue = [4, 9]"] ;
44 -> 46 ;
47 [label="gini = 0.0\nsamples = 7\nvalue = [0, 7]"] ;
46 -> 47 ;
48 [label="X[5] <= 117105624.0\ngini = 0.4444\nsamples = 6\nvalue = [4, 2]"] ;
46 -> 48 ;
49 [label="gini = 0.0\nsamples = 4\nvalue = [4, 0]"] ;
48 -> 49 ;
50 [label="gini = 0.0\nsamples = 2\nvalue = [0, 2]"] ;
48 -> 50 ;
51 [label="X[9] <= 112590304.0\ngini = 0.3632\nsamples = 130\nvalue = [99, 31]"] ;
43 -> 51 ;
52 [label="gini = 0.0\nsamples = 20\nvalue = [20, 0]"] ;
51 -> 52 ;
53 [label="X[8] <= 67806800.0\ngini = 0.4048\nsamples = 110\nvalue = [79, 31]"] ;
51 -> 53 ;
54 [label="gini = 0.0\nsamples = 11\nvalue = [11, 0]"] ;
53 -> 54 ;
55 [label="X[12] <= 84250912.0\ngini = 0.4302\nsamples = 99\nvalue = [68, 31]"] ;
53 -> 55 ;
56 [label="X[16] <= 0.5\ngini = 0.3336\nsamples = 52\nvalue = [41, 11]"] ;
55 -> 56 ;
57 [label="X[2] <= 73466488.0\ngini = 0.3988\nsamples = 40\nvalue = [29, 11]"] ;
56 -> 57 ;
58 [label="X[12] <= 76980272.0\ngini = 0.4938\nsamples = 18\nvalue = [10, 8]"] ;
57 -> 58 ;
59 [label="X[10] <= 118021856.0\ngini = 0.2449\nsamples = 7\nvalue = [6, 1]"] ;
58 -> 59 ;
60 [label="gini = 0.0\nsamples = 1\nvalue = [0, 1]"] ;
59 -> 60 ;
61 [label="gini = 0.0\nsamples = 6\nvalue = [6, 0]"] ;
59 -> 61 ;
62 [label="X[3] <= 113968424.0\ngini = 0.4628\nsamples = 11\nvalue = [4, 7]"] ;
58 -> 62 ;
63 [label="X[9] <= 120687024.0\ngini = 0.375\nsamples = 4\nvalue = [3, 1]"] ;
62 -> 63 ;
64 [label="gini = 0.0\nsamples = 1\nvalue = [0, 1]"] ;
63 -> 64 ;
65 [label="gini = 0.0\nsamples = 3\nvalue = [3, 0]"] ;
63 -> 65 ;
66 [label="X[4] <= 133268952.0\ngini = 0.2449\nsamples = 7\nvalue = [1, 6]"] ;
62 -> 66 ;
67 [label="gini = 0.0\nsamples = 6\nvalue = [0, 6]"] ;
66 -> 67 ;
68 [label="gini = 0.0\nsamples = 1\nvalue = [1, 0]"] ;
66 -> 68 ;
69 [label="X[2] <= 78718944.0\ngini = 0.2355\nsamples = 22\nvalue = [19, 3]"] ;
57 -> 69 ;
70 [label="X[13] <= 65218128.0\ngini = 0.0997\nsamples = 19\nvalue = [18, 1]"] ;
69 -> 70 ;
71 [label="gini = 0.0\nsamples = 1\nvalue = [0, 1]"] ;
70 -> 71 ;
72 [label="gini = 0.0\nsamples = 18\nvalue = [18, 0]"] ;
70 -> 72 ;
73 [label="X[12] <= 80468696.0\ngini = 0.4444\nsamples = 3\nvalue = [1, 2]"] ;
69 -> 73 ;
74 [label="gini = 0.0\nsamples = 2\nvalue = [0, 2]"] ;
73 -> 74 ;
75 [label="gini = 0.0\nsamples = 1\nvalue = [1, 0]"] ;
73 -> 75 ;
76 [label="gini = 0.0\nsamples = 12\nvalue = [12, 0]"] ;
56 -> 76 ;
77 [label="X[10] <= 117587264.0\ngini = 0.4889\nsamples = 47\nvalue = [27, 20]"] ;
55 -> 77 ;
78 [label="X[13] <= 68131536.0\ngini = 0.2778\nsamples = 6\nvalue = [1, 5]"] ;
77 -> 78 ;
79 [label="gini = 0.0\nsamples = 5\nvalue = [0, 5]"] ;
78 -> 79 ;
80 [label="gini = 0.0\nsamples = 1\nvalue = [1, 0]"] ;
78 -> 80 ;
81 [label="X[12] <= 87109664.0\ngini = 0.464\nsamples = 41\nvalue = [26, 15]"] ;
77 -> 81 ;
82 [label="X[3] <= 126249584.0\ngini = 0.4938\nsamples = 18\nvalue = [8, 10]"] ;
81 -> 82 ;
83 [label="X[6] <= 81891552.0\ngini = 0.4444\nsamples = 12\nvalue = [8, 4]"] ;
82 -> 83 ;
84 [label="X[2] <= 77926432.0\ngini = 0.32\nsamples = 10\nvalue = [8, 2]"] ;
83 -> 84 ;
85 [label="gini = 0.0\nsamples = 7\nvalue = [7, 0]"] ;
84 -> 85 ;
86 [label="X[5] <= 73675408.0\ngini = 0.4444\nsamples = 3\nvalue = [1, 2]"] ;
84 -> 86 ;
87 [label="gini = 0.0\nsamples = 1\nvalue = [1, 0]"] ;
86 -> 87 ;
88 [label="gini = 0.0\nsamples = 2\nvalue = [0, 2]"] ;
86 -> 88 ;
89 [label="gini = 0.0\nsamples = 2\nvalue = [0, 2]"] ;
83 -> 89 ;
90 [label="gini = 0.0\nsamples = 6\nvalue = [0, 6]"] ;
82 -> 90 ;
91 [label="X[4] <= 115454304.0\ngini = 0.3403\nsamples = 23\nvalue = [18, 5]"] ;
81 -> 91 ;
92 [label="X[7] <= 74024568.0\ngini = 0.375\nsamples = 4\nvalue = [1, 3]"] ;
91 -> 92 ;
93 [label="gini = 0.0\nsamples = 1\nvalue = [1, 0]"] ;
92 -> 93 ;
94 [label="gini = 0.0\nsamples = 3\nvalue = [0, 3]"] ;
92 -> 94 ;
95 [label="X[31] <= 0.5\ngini = 0.1884\nsamples = 19\nvalue = [17, 2]"] ;
91 -> 95 ;
96 [label="X[1] <= 70780608.0\ngini = 0.1049\nsamples = 18\nvalue = [17, 1]"] ;
95 -> 96 ;
97 [label="X[8] <= 71534416.0\ngini = 0.5\nsamples = 2\nvalue = [1, 1]"] ;
96 -> 97 ;
98 [label="gini = 0.0\nsamples = 1\nvalue = [1, 0]"] ;
97 -> 98 ;
99 [label="gini = 0.0\nsamples = 1\nvalue = [0, 1]"] ;
97 -> 99 ;
100 [label="gini = 0.0\nsamples = 16\nvalue = [16, 0]"] ;
96 -> 100 ;
101 [label="gini = 0.0\nsamples = 1\nvalue = [0, 1]"] ;
95 -> 101 ;
102 [label="gini = 0.0\nsamples = 2\nvalue = [0, 2]"] ;
38 -> 102 ;
103 [label="X[4] <= 67313696.0\ngini = 0.4925\nsamples = 3531\nvalue = [1982, 1549]"] ;
3 -> 103 ;
104 [label="X[3] <= 66617360.0\ngini = 0.4321\nsamples = 38\nvalue = [12, 26]"] ;
103 -> 104 ;
105 [label="X[0] <= 128057680.0\ngini = 0.3018\nsamples = 27\nvalue = [5, 22]"] ;
104 -> 105 ;
106 [label="X[10] <= 136381600.0\ngini = 0.2604\nsamples = 26\nvalue = [4, 22]"] ;
105 -> 106 ;
107 [label="X[13] <= 113813600.0\ngini = 0.2112\nsamples = 25\nvalue = [3, 22]"] ;
106 -> 107 ;
108 [label="gini = 0.0\nsamples = 13\nvalue = [0, 13]"] ;
107 -> 108 ;
109 [label="X[0] <= 84583088.0\ngini = 0.375\nsamples = 12\nvalue = [3, 9]"] ;
107 -> 109 ;
110 [label="gini = 0.0\nsamples = 2\nvalue = [2, 0]"] ;
109 -> 110 ;
111 [label="X[9] <= 78152704.0\ngini = 0.18\nsamples = 10\nvalue = [1, 9]"] ;
109 -> 111 ;
112 [label="gini = 0.0\nsamples = 9\nvalue = [0, 9]"] ;
111 -> 112 ;
113 [label="gini = 0.0\nsamples = 1\nvalue = [1, 0]"] ;
111 -> 113 ;
114 [label="gini = 0.0\nsamples = 1\nvalue = [1, 0]"] ;
106 -> 114 ;
115 [label="gini = 0.0\nsamples = 1\nvalue = [1, 0]"] ;
105 -> 115 ;
116 [label="X[10] <= 77528704.0\ngini = 0.4628\nsamples = 11\nvalue = [7, 4]"] ;
104 -> 116 ;
117 [label="X[3] <= 69510960.0\ngini = 0.4444\nsamples = 6\nvalue = [2, 4]"] ;
116 -> 117 ;
118 [label="gini = 0.0\nsamples = 2\nvalue = [2, 0]"] ;
117 -> 118 ;
119 [label="gini = 0.0\nsamples = 4\nvalue = [0, 4]"] ;
117 -> 119 ;
120 [label="gini = 0.0\nsamples = 5\nvalue = [5, 0]"] ;
116 -> 120 ;
121 [label="X[10] <= 99143424.0\ngini = 0.4918\nsamples = 3493\nvalue = [1970, 1523]"] ;
103 -> 121 ;
122 [label="X[5] <= 66094232.0\ngini = 0.4838\nsamples = 1858\nvalue = [1096, 762]"] ;
121 -> 122 ;
123 [label="X[10] <= 67974816.0\ngini = 0.449\nsamples = 338\nvalue = [223, 115]"] ;
122 -> 123 ;
124 [label="gini = 0.0\nsamples = 6\nvalue = [0, 6]"] ;
123 -> 124 ;
125 [label="X[1] <= 77565088.0\ngini = 0.441\nsamples = 332\nvalue = [223, 109]"] ;
123 -> 125 ;
126 [label="X[3] <= 133563112.0\ngini = 0.3777\nsamples = 186\nvalue = [139, 47]"] ;
125 -> 126 ;
127 [label="X[7] <= 62539408.0\ngini = 0.3653\nsamples = 183\nvalue = [139, 44]"] ;
126 -> 127 ;
128 [label="gini = 0.0\nsamples = 3\nvalue = [0, 3]"] ;
127 -> 128 ;
129 [label="X[10] <= 98441336.0\ngini = 0.3518\nsamples = 180\nvalue = [139, 41]"] ;
127 -> 129 ;
130 [label="X[2] <= 73773392.0\ngini = 0.3386\nsamples = 176\nvalue = [138, 38]"] ;
129 -> 130 ;
131 [label="X[7] <= 65037704.0\ngini = 0.3803\nsamples = 141\nvalue = [105, 36]"] ;
130 -> 131 ;
132 [label="X[30] <= 0.5\ngini = 0.2076\nsamples = 34\nvalue = [30, 4]"] ;
131 -> 132 ;
133 [label="X[32] <= 0.5\ngini = 0.1207\nsamples = 31\nvalue = [29, 2]"] ;
132 -> 133 ;
134 [label="X[0] <= 73501856.0\ngini = 0.0644\nsamples = 30\nvalue = [29, 1]"] ;
133 -> 134 ;
135 [label="gini = 0.0\nsamples = 28\nvalue = [28, 0]"] ;
134 -> 135 ;
136 [label="X[26] <= 0.5\ngini = 0.5\nsamples = 2\nvalue = [1, 1]"] ;
134 -> 136 ;
137 [label="gini = 0.0\nsamples = 1\nvalue = [1, 0]"] ;
136 -> 137 ;
138 [label="gini = 0.0\nsamples = 1\nvalue = [0, 1]"] ;
136 -> 138 ;
139 [label="gini = 0.0\nsamples = 1\nvalue = [0, 1]"] ;
133 -> 139 ;
140 [label="X[13] <= 81715616.0\ngini = 0.4444\nsamples = 3\nvalue = [1, 2]"] ;
132 -> 140 ;
141 [label="gini = 0.0\nsamples = 1\nvalue = [1, 0]"] ;
140 -> 141 ;
142 [label="gini = 0.0\nsamples = 2\nvalue = [0, 2]"] ;
140 -> 142 ;
143 [label="X[10] <= 68847112.0\ngini = 0.4193\nsamples = 107\nvalue = [75, 32]"] ;
131 -> 143 ;
144 [label="X[9] <= 67263248.0\ngini = 0.4444\nsamples = 9\nvalue = [3, 6]"] ;
143 -> 144 ;
145 [label="gini = 0.0\nsamples = 3\nvalue = [3, 0]"] ;
144 -> 145 ;
146 [label="gini = 0.0\nsamples = 6\nvalue = [0, 6]"] ;
144 -> 146 ;
147 [label="X[5] <= 65222164.0\ngini = 0.3898\nsamples = 98\nvalue = [72, 26]"] ;
143 -> 147 ;
148 [label="X[6] <= 80646912.0\ngini = 0.2815\nsamples = 59\nvalue = [49, 10]"] ;
147 -> 148 ;
149 [label="X[11] <= 71365416.0\ngini = 0.48\nsamples = 5\nvalue = [2, 3]"] ;
148 -> 149 ;
150 [label="gini = 0.0\nsamples = 3\nvalue = [0, 3]"] ;
149 -> 150 ;
151 [label="gini = 0.0\nsamples = 2\nvalue = [2, 0]"] ;
149 -> 151 ;
152 [label="X[8] <= 81078000.0\ngini = 0.2257\nsamples = 54\nvalue = [47, 7]"] ;
148 -> 152 ;
153 [label="X[12] <= 65152232.0\ngini = 0.1769\nsamples = 51\nvalue = [46, 5]"] ;
152 -> 153 ;
154 [label="X[13] <= 126750488.0\ngini = 0.4012\nsamples = 18\nvalue = [13, 5]"] ;
153 -> 154 ;
155 [label="X[1] <= 77011720.0\ngini = 0.2311\nsamples = 15\nvalue = [13, 2]"] ;
154 -> 155 ;
156 [label="gini = 0.0\nsamples = 12\nvalue = [12, 0]"] ;
155 -> 156 ;
157 [label="X[15] <= 0.5\ngini = 0.4444\nsamples = 3\nvalue = [1, 2]"] ;
155 -> 157 ;
158 [label="gini = 0.0\nsamples = 2\nvalue = [0, 2]"] ;
157 -> 158 ;
159 [label="gini = 0.0\nsamples = 1\nvalue = [1, 0]"] ;
157 -> 159 ;
160 [label="gini = 0.0\nsamples = 3\nvalue = [0, 3]"] ;
154 -> 160 ;
161 [label="gini = 0.0\nsamples = 33\nvalue = [33, 0]"] ;
153 -> 161 ;
162 [label="X[0] <= 72293336.0\ngini = 0.4444\nsamples = 3\nvalue = [1, 2]"] ;
152 -> 162 ;
163 [label="gini = 0.0\nsamples = 1\nvalue = [1, 0]"] ;
162 -> 163 ;
164 [label="gini = 0.0\nsamples = 2\nvalue = [0, 2]"] ;
162 -> 164 ;
165 [label="X[8] <= 68318688.0\ngini = 0.4839\nsamples = 39\nvalue = [23, 16]"] ;
147 -> 165 ;
166 [label="X[1] <= 73732256.0\ngini = 0.4444\nsamples = 12\nvalue = [4, 8]"] ;
165 -> 166 ;
167 [label="X[1] <= 65283508.0\ngini = 0.1975\nsamples = 9\nvalue = [1, 8]"] ;
166 -> 167 ;
168 [label="gini = 0.0\nsamples = 1\nvalue = [1, 0]"] ;
167 -> 168 ;
169 [label="gini = 0.0\nsamples = 8\nvalue = [0, 8]"] ;
167 -> 169 ;
170 [label="gini = 0.0\nsamples = 3\nvalue = [3, 0]"] ;
166 -> 170 ;
171 [label="X[8] <= 69297952.0\ngini = 0.417\nsamples = 27\nvalue = [19, 8]"] ;
165 -> 171 ;
172 [label="gini = 0.0\nsamples = 10\nvalue = [10, 0]"] ;
171 -> 172 ;
173 [label="X[7] <= 70711984.0\ngini = 0.4983\nsamples = 17\nvalue = [9, 8]"] ;
171 -> 173 ;
174 [label="gini = 0.0\nsamples = 3\nvalue = [0, 3]"] ;
173 -> 174 ;
175 [label="X[0] <= 76687992.0\ngini = 0.4592\nsamples = 14\nvalue = [9, 5]"] ;
173 -> 175 ;
176 [label="gini = 0.0\nsamples = 4\nvalue = [4, 0]"] ;
175 -> 176 ;
177 [label="X[2] <= 72903616.0\ngini = 0.5\nsamples = 10\nvalue = [5, 5]"] ;
175 -> 177 ;
178 [label="X[7] <= 94701424.0\ngini = 0.4688\nsamples = 8\nvalue = [5, 3]"] ;
177 -> 178 ;
179 [label="X[12] <= 71787208.0\ngini = 0.375\nsamples = 4\nvalue = [1, 3]"] ;
178 -> 179 ;
180 [label="gini = 0.0\nsamples = 3\nvalue = [0, 3]"] ;
179 -> 180 ;
181 [label="gini = 0.0\nsamples = 1\nvalue = [1, 0]"] ;
179 -> 181 ;
182 [label="gini = 0.0\nsamples = 4\nvalue = [4, 0]"] ;
178 -> 182 ;
183 [label="gini = 0.0\nsamples = 2\nvalue = [0, 2]"] ;
177 -> 183 ;
184 [label="X[1] <= 65040224.0\ngini = 0.1078\nsamples = 35\nvalue = [33, 2]"] ;
130 -> 184 ;
185 [label="X[3] <= 91135320.0\ngini = 0.5\nsamples = 2\nvalue = [1, 1]"] ;
184 -> 185 ;
186 [label="gini = 0.0\nsamples = 1\nvalue = [0, 1]"] ;
185 -> 186 ;
187 [label="gini = 0.0\nsamples = 1\nvalue = [1, 0]"] ;
185 -> 187 ;
188 [label="X[8] <= 69125376.0\ngini = 0.0588\nsamples = 33\nvalue = [32, 1]"] ;
184 -> 188 ;
189 [label="X[3] <= 123486048.0\ngini = 0.4444\nsamples = 3\nvalue = [2, 1]"] ;
188 -> 189 ;
190 [label="gini = 0.0\nsamples = 2\nvalue = [2, 0]"] ;
189 -> 190 ;
191 [label="gini = 0.0\nsamples = 1\nvalue = [0, 1]"] ;
189 -> 191 ;
192 [label="gini = 0.0\nsamples = 30\nvalue = [30, 0]"] ;
188 -> 192 ;
193 [label="X[6] <= 102067344.0\ngini = 0.375\nsamples = 4\nvalue = [1, 3]"] ;
129 -> 193 ;
194 [label="gini = 0.0\nsamples = 1\nvalue = [1, 0]"] ;
193 -> 194 ;
195 [label="gini = 0.0\nsamples = 3\nvalue = [0, 3]"] ;
193 -> 195 ;
196 [label="gini = 0.0\nsamples = 3\nvalue = [0, 3]"] ;
126 -> 196 ;
197 [label="X[7] <= 113388560.0\ngini = 0.4886\nsamples = 146\nvalue = [84, 62]"] ;
125 -> 197 ;
198 [label="X[4] <= 115676832.0\ngini = 0.4982\nsamples = 132\nvalue = [70, 62]"] ;
197 -> 198 ;
199 [label="X[8] <= 68861376.0\ngini = 0.4785\nsamples = 53\nvalue = [21, 32]"] ;
198 -> 199 ;
200 [label="X[2] <= 68225024.0\ngini = 0.2449\nsamples = 7\nvalue = [6, 1]"] ;
199 -> 200 ;
201 [label="gini = 0.0\nsamples = 1\nvalue = [0, 1]"] ;
200 -> 201 ;
202 [label="gini = 0.0\nsamples = 6\nvalue = [6, 0]"] ;
200 -> 202 ;
203 [label="X[4] <= 79273232.0\ngini = 0.4395\nsamples = 46\nvalue = [15, 31]"] ;
199 -> 203 ;
204 [label="gini = 0.0\nsamples = 4\nvalue = [4, 0]"] ;
203 -> 204 ;
205 [label="X[2] <= 72903616.0\ngini = 0.3866\nsamples = 42\nvalue = [11, 31]"] ;
203 -> 205 ;
206 [label="X[8] <= 74500704.0\ngini = 0.5\nsamples = 12\nvalue = [6, 6]"] ;
205 -> 206 ;
207 [label="gini = 0.0\nsamples = 4\nvalue = [0, 4]"] ;
206 -> 207 ;
208 [label="X[5] <= 64763792.0\ngini = 0.375\nsamples = 8\nvalue = [6, 2]"] ;
206 -> 208 ;
209 [label="gini = 0.0\nsamples = 2\nvalue = [0, 2]"] ;
208 -> 209 ;
210 [label="gini = 0.0\nsamples = 6\nvalue = [6, 0]"] ;
208 -> 210 ;
211 [label="X[13] <= 86218976.0\ngini = 0.2778\nsamples = 30\nvalue = [5, 25]"] ;
205 -> 211 ;
212 [label="gini = 0.0\nsamples = 1\nvalue = [1, 0]"] ;
211 -> 212 ;
213 [label="X[12] <= 65834592.0\ngini = 0.2378\nsamples = 29\nvalue = [4, 25]"] ;
211 -> 213 ;
214 [label="gini = 0.0\nsamples = 15\nvalue = [0, 15]"] ;
213 -> 214 ;
215 [label="X[12] <= 66064372.0\ngini = 0.4082\nsamples = 14\nvalue = [4, 10]"] ;
213 -> 215 ;
216 [label="gini = 0.0\nsamples = 3\nvalue = [3, 0]"] ;
215 -> 216 ;
217 [label="X[7] <= 66247328.0\ngini = 0.1653\nsamples = 11\nvalue = [1, 10]"] ;
215 -> 217 ;
218 [label="gini = 0.0\nsamples = 1\nvalue = [1, 0]"] ;
217 -> 218 ;
219 [label="gini = 0.0\nsamples = 10\nvalue = [0, 10]"] ;
217 -> 219 ;
220 [label="X[8] <= 73942496.0\ngini = 0.4711\nsamples = 79\nvalue = [49, 30]"] ;
198 -> 220 ;
221 [label="X[4] <= 117047296.0\ngini = 0.2778\nsamples = 24\nvalue = [20, 4]"] ;
220 -> 221 ;
222 [label="gini = 0.0\nsamples = 2\nvalue = [0, 2]"] ;
221 -> 222 ;
223 [label="X[3] <= 113772560.0\ngini = 0.1653\nsamples = 22\nvalue = [20, 2]"] ;
221 -> 223 ;
224 [label="gini = 0.0\nsamples = 1\nvalue = [0, 1]"] ;
223 -> 224 ;
225 [label="X[12] <= 83897904.0\ngini = 0.0907\nsamples = 21\nvalue = [20, 1]"] ;
223 -> 225 ;
226 [label="gini = 0.0\nsamples = 20\nvalue = [20, 0]"] ;
225 -> 226 ;
227 [label="gini = 0.0\nsamples = 1\nvalue = [0, 1]"] ;
225 -> 227 ;
228 [label="X[7] <= 89952448.0\ngini = 0.4985\nsamples = 55\nvalue = [29, 26]"] ;
220 -> 228 ;
229 [label="X[2] <= 74108128.0\ngini = 0.4965\nsamples = 48\nvalue = [22, 26]"] ;
228 -> 229 ;
230 [label="X[0] <= 67071704.0\ngini = 0.4362\nsamples = 28\nvalue = [9, 19]"] ;
229 -> 230 ;
231 [label="gini = 0.0\nsamples = 3\nvalue = [3, 0]"] ;
230 -> 231 ;
232 [label="X[12] <= 66112248.0\ngini = 0.3648\nsamples = 25\nvalue = [6, 19]"] ;
230 -> 232 ;
233 [label="X[2] <= 73881120.0\ngini = 0.1327\nsamples = 14\nvalue = [1, 13]"] ;
232 -> 233 ;
234 [label="gini = 0.0\nsamples = 12\nvalue = [0, 12]"] ;
233 -> 234 ;
235 [label="X[13] <= 86506064.0\ngini = 0.5\nsamples = 2\nvalue = [1, 1]"] ;
233 -> 235 ;
236 [label="gini = 0.0\nsamples = 1\nvalue = [1, 0]"] ;
235 -> 236 ;
237 [label="gini = 0.0\nsamples = 1\nvalue = [0, 1]"] ;
235 -> 237 ;
238 [label="X[11] <= 86073568.0\ngini = 0.4959\nsamples = 11\nvalue = [5, 6]"] ;
232 -> 238 ;
239 [label="gini = 0.0\nsamples = 4\nvalue = [0, 4]"] ;
238 -> 239 ;
240 [label="X[22] <= 0.5\ngini = 0.4082\nsamples = 7\nvalue = [5, 2]"] ;
238 -> 240 ;
241 [label="gini = 0.0\nsamples = 5\nvalue = [5, 0]"] ;
240 -> 241 ;
242 [label="gini = 0.0\nsamples = 2\nvalue = [0, 2]"] ;
240 -> 242 ;
243 [label="X[13] <= 96906416.0\ngini = 0.455\nsamples = 20\nvalue = [13, 7]"] ;
229 -> 243 ;
244 [label="gini = 0.0\nsamples = 3\nvalue = [0, 3]"] ;
243 -> 244 ;
245 [label="X[0] <= 66579648.0\ngini = 0.3599\nsamples = 17\nvalue = [13, 4]"] ;
243 -> 245 ;
246 [label="gini = 0.0\nsamples = 2\nvalue = [0, 2]"] ;
245 -> 246 ;
247 [label="X[6] <= 122470432.0\ngini = 0.2311\nsamples = 15\nvalue = [13, 2]"] ;
245 -> 247 ;
248 [label="X[13] <= 100977264.0\ngini = 0.1327\nsamples = 14\nvalue = [13, 1]"] ;
247 -> 248 ;
249 [label="X[9] <= 109689584.0\ngini = 0.5\nsamples = 2\nvalue = [1, 1]"] ;
248 -> 249 ;
250 [label="gini = 0.0\nsamples = 1\nvalue = [0, 1]"] ;
249 -> 250 ;
251 [label="gini = 0.0\nsamples = 1\nvalue = [1, 0]"] ;
249 -> 251 ;
252 [label="gini = 0.0\nsamples = 12\nvalue = [12, 0]"] ;
248 -> 252 ;
253 [label="gini = 0.0\nsamples = 1\nvalue = [0, 1]"] ;
247 -> 253 ;
254 [label="gini = 0.0\nsamples = 7\nvalue = [7, 0]"] ;
228 -> 254 ;
255 [label="gini = 0.0\nsamples = 14\nvalue = [14, 0]"] ;
197 -> 255 ;
256 [label="X[10] <= 94243976.0\ngini = 0.4889\nsamples = 1520\nvalue = [873, 647]"] ;
122 -> 256 ;
257 [label="X[7] <= 124307696.0\ngini = 0.4928\nsamples = 1268\nvalue = [710, 558]"] ;
256 -> 257 ;
258 [label="X[1] <= 97520432.0\ngini = 0.4936\nsamples = 1258\nvalue = [700, 558]"] ;
257 -> 258 ;
259 [label="X[0] <= 71609696.0\ngini = 0.4884\nsamples = 986\nvalue = [568, 418]"] ;
258 -> 259 ;
260 [label="X[3] <= 127139872.0\ngini = 0.4305\nsamples = 118\nvalue = [81, 37]"] ;
259 -> 260 ;
261 [label="X[0] <= 66091952.0\ngini = 0.3639\nsamples = 92\nvalue = [70, 22]"] ;
260 -> 261 ;
262 [label="X[0] <= 65602808.0\ngini = 0.4444\nsamples = 6\nvalue = [2, 4]"] ;
261 -> 262 ;
263 [label="gini = 0.0\nsamples = 2\nvalue = [2, 0]"] ;
262 -> 263 ;
264 [label="gini = 0.0\nsamples = 4\nvalue = [0, 4]"] ;
262 -> 264 ;
265 [label="X[9] <= 71479408.0\ngini = 0.331\nsamples = 86\nvalue = [68, 18]"] ;
261 -> 265 ;
266 [label="X[6] <= 125516336.0\ngini = 0.1284\nsamples = 29\nvalue = [27, 2]"] ;
265 -> 266 ;
267 [label="X[5] <= 66924216.0\ngini = 0.0689\nsamples = 28\nvalue = [27, 1]"] ;
266 -> 267 ;
268 [label="X[4] <= 127205392.0\ngini = 0.5\nsamples = 2\nvalue = [1, 1]"] ;
267 -> 268 ;
269 [label="gini = 0.0\nsamples = 1\nvalue = [0, 1]"] ;
268 -> 269 ;
270 [label="gini = 0.0\nsamples = 1\nvalue = [1, 0]"] ;
268 -> 270 ;
271 [label="gini = 0.0\nsamples = 26\nvalue = [26, 0]"] ;
267 -> 271 ;
272 [label="gini = 0.0\nsamples = 1\nvalue = [0, 1]"] ;
266 -> 272 ;
273 [label="X[7] <= 76745056.0\ngini = 0.4038\nsamples = 57\nvalue = [41, 16]"] ;
265 -> 273 ;
274 [label="X[0] <= 66786048.0\ngini = 0.4491\nsamples = 47\nvalue = [31, 16]"] ;
273 -> 274 ;
275 [label="gini = 0.0\nsamples = 7\nvalue = [7, 0]"] ;
274 -> 275 ;
276 [label="X[0] <= 67057104.0\ngini = 0.48\nsamples = 40\nvalue = [24, 16]"] ;
274 -> 276 ;
277 [label="X[7] <= 63308064.0\ngini = 0.42\nsamples = 10\nvalue = [3, 7]"] ;
276 -> 277 ;
278 [label="gini = 0.0\nsamples = 2\nvalue = [2, 0]"] ;
277 -> 278 ;
279 [label="X[9] <= 86467536.0\ngini = 0.2188\nsamples = 8\nvalue = [1, 7]"] ;
277 -> 279 ;
280 [label="gini = 0.0\nsamples = 7\nvalue = [0, 7]"] ;
279 -> 280 ;
281 [label="gini = 0.0\nsamples = 1\nvalue = [1, 0]"] ;
279 -> 281 ;
282 [label="X[7] <= 64485192.0\ngini = 0.42\nsamples = 30\nvalue = [21, 9]"] ;
276 -> 282 ;
283 [label="X[19] <= 0.5\ngini = 0.1528\nsamples = 12\nvalue = [11, 1]"] ;
282 -> 283 ;
284 [label="gini = 0.0\nsamples = 11\nvalue = [11, 0]"] ;
283 -> 284 ;
285 [label="gini = 0.0\nsamples = 1\nvalue = [0, 1]"] ;
283 -> 285 ;
286 [label="X[12] <= 71854512.0\ngini = 0.4938\nsamples = 18\nvalue = [10, 8]"] ;
282 -> 286 ;
287 [label="gini = 0.0\nsamples = 3\nvalue = [0, 3]"] ;
286 -> 287 ;
288 [label="X[6] <= 88224496.0\ngini = 0.4444\nsamples = 15\nvalue = [10, 5]"] ;
286 -> 288 ;
289 [label="X[5] <= 95559056.0\ngini = 0.375\nsamples = 4\nvalue = [1, 3]"] ;
288 -> 289 ;
290 [label="gini = 0.0\nsamples = 3\nvalue = [0, 3]"] ;
289 -> 290 ;
291 [label="gini = 0.0\nsamples = 1\nvalue = [1, 0]"] ;
289 -> 291 ;
292 [label="X[6] <= 116535336.0\ngini = 0.2975\nsamples = 11\nvalue = [9, 2]"] ;
288 -> 292 ;
293 [label="X[1] <= 89915704.0\ngini = 0.18\nsamples = 10\nvalue = [9, 1]"] ;
292 -> 293 ;
294 [label="gini = 0.0\nsamples = 8\nvalue = [8, 0]"] ;
293 -> 294 ;
295 [label="X[7] <= 72877712.0\ngini = 0.5\nsamples = 2\nvalue = [1, 1]"] ;
293 -> 295 ;
296 [label="gini = 0.0\nsamples = 1\nvalue = [0, 1]"] ;
295 -> 296 ;
297 [label="gini = 0.0\nsamples = 1\nvalue = [1, 0]"] ;
295 -> 297 ;
298 [label="gini = 0.0\nsamples = 1\nvalue = [0, 1]"] ;
292 -> 298 ;
299 [label="gini = 0.0\nsamples = 10\nvalue = [10, 0]"] ;
273 -> 299 ;
300 [label="X[4] <= 132590936.0\ngini = 0.4882\nsamples = 26\nvalue = [11, 15]"] ;
260 -> 300 ;
301 [label="X[2] <= 72950920.0\ngini = 0.2778\nsamples = 12\nvalue = [2, 10]"] ;
300 -> 301 ;
302 [label="X[0] <= 66578368.0\ngini = 0.1653\nsamples = 11\nvalue = [1, 10]"] ;
301 -> 302 ;
303 [label="X[3] <= 132928048.0\ngini = 0.5\nsamples = 2\nvalue = [1, 1]"] ;
302 -> 303 ;
304 [label="gini = 0.0\nsamples = 1\nvalue = [0, 1]"] ;
303 -> 304 ;
305 [label="gini = 0.0\nsamples = 1\nvalue = [1, 0]"] ;
303 -> 305 ;
306 [label="gini = 0.0\nsamples = 9\nvalue = [0, 9]"] ;
302 -> 306 ;
307 [label="gini = 0.0\nsamples = 1\nvalue = [1, 0]"] ;
301 -> 307 ;
308 [label="X[10] <= 90703744.0\ngini = 0.4592\nsamples = 14\nvalue = [9, 5]"] ;
300 -> 308 ;
309 [label="X[10] <= 68912808.0\ngini = 0.2975\nsamples = 11\nvalue = [9, 2]"] ;
308 -> 309 ;
310 [label="gini = 0.0\nsamples = 1\nvalue = [0, 1]"] ;
309 -> 310 ;
311 [label="X[9] <= 86865344.0\ngini = 0.18\nsamples = 10\nvalue = [9, 1]"] ;
309 -> 311 ;
312 [label="gini = 0.0\nsamples = 8\nvalue = [8, 0]"] ;
311 -> 312 ;
313 [label="X[4] <= 133368032.0\ngini = 0.5\nsamples = 2\nvalue = [1, 1]"] ;
311 -> 313 ;
314 [label="gini = 0.0\nsamples = 1\nvalue = [1, 0]"] ;
313 -> 314 ;
315 [label="gini = 0.0\nsamples = 1\nvalue = [0, 1]"] ;
313 -> 315 ;
316 [label="gini = 0.0\nsamples = 3\nvalue = [0, 3]"] ;
308 -> 316 ;
317 [label="X[5] <= 106757816.0\ngini = 0.4925\nsamples = 868\nvalue = [487, 381]"] ;
259 -> 317 ;
318 [label="X[9] <= 67078920.0\ngini = 0.4952\nsamples = 809\nvalue = [444, 365]"] ;
317 -> 318 ;
319 [label="gini = 0.0\nsamples = 5\nvalue = [0, 5]"] ;
318 -> 319 ;
320 [label="X[6] <= 127627824.0\ngini = 0.4945\nsamples = 804\nvalue = [444, 360]"] ;
318 -> 320 ;
321 [label="X[6] <= 127403536.0\ngini = 0.4961\nsamples = 774\nvalue = [421, 353]"] ;
320 -> 321 ;
322 [label="X[11] <= 84481032.0\ngini = 0.4954\nsamples = 768\nvalue = [421, 347]"] ;
321 -> 322 ;
323 [label="X[0] <= 72021336.0\ngini = 0.4978\nsamples = 690\nvalue = [368, 322]"] ;
322 -> 323 ;
324 [label="X[3] <= 96409008.0\ngini = 0.3367\nsamples = 14\nvalue = [3, 11]"] ;
323 -> 324 ;
325 [label="gini = 0.0\nsamples = 2\nvalue = [2, 0]"] ;
324 -> 325 ;
326 [label="X[3] <= 132277792.0\ngini = 0.1528\nsamples = 12\nvalue = [1, 11]"] ;
324 -> 326 ;
327 [label="gini = 0.0\nsamples = 11\nvalue = [0, 11]"] ;
326 -> 327 ;
328 [label="gini = 0.0\nsamples = 1\nvalue = [1, 0]"] ;
326 -> 328 ;
329 [label="X[5] <= 91241424.0\ngini = 0.4968\nsamples = 676\nvalue = [365, 311]"] ;
323 -> 329 ;
330 [label="X[7] <= 63174768.0\ngini = 0.4926\nsamples = 551\nvalue = [309, 242]"] ;
329 -> 330 ;
331 [label="X[30] <= 0.5\ngini = 0.32\nsamples = 10\nvalue = [2, 8]"] ;
330 -> 331 ;
332 [label="X[9] <= 68061664.0\ngini = 0.1975\nsamples = 9\nvalue = [1, 8]"] ;
331 -> 332 ;
333 [label="X[6] <= 116543152.0\ngini = 0.5\nsamples = 2\nvalue = [1, 1]"] ;
332 -> 333 ;
334 [label="gini = 0.0\nsamples = 1\nvalue = [1, 0]"] ;
333 -> 334 ;
335 [label="gini = 0.0\nsamples = 1\nvalue = [0, 1]"] ;
333 -> 335 ;
336 [label="gini = 0.0\nsamples = 7\nvalue = [0, 7]"] ;
332 -> 336 ;
337 [label="gini = 0.0\nsamples = 1\nvalue = [1, 0]"] ;
331 -> 337 ;
338 [label="X[7] <= 124286176.0\ngini = 0.4909\nsamples = 541\nvalue = [307, 234]"] ;
330 -> 338 ;
339 [label="X[3] <= 66373104.0\ngini = 0.4897\nsamples = 537\nvalue = [307, 230]"] ;
338 -> 339 ;
340 [label="X[12] <= 64371564.0\ngini = 0.142\nsamples = 13\nvalue = [12, 1]"] ;
339 -> 340 ;
341 [label="gini = 0.0\nsamples = 1\nvalue = [0, 1]"] ;
340 -> 341 ;
342 [label="gini = 0.0\nsamples = 12\nvalue = [12, 0]"] ;
340 -> 342 ;
343 [label="X[3] <= 71337072.0\ngini = 0.4921\nsamples = 524\nvalue = [295, 229]"] ;
339 -> 343 ;
344 [label="X[8] <= 71346352.0\ngini = 0.2449\nsamples = 7\nvalue = [1, 6]"] ;
343 -> 344 ;
345 [label="gini = 0.0\nsamples = 1\nvalue = [1, 0]"] ;
344 -> 345 ;
346 [label="gini = 0.0\nsamples = 6\nvalue = [0, 6]"] ;
344 -> 346 ;
347 [label="X[5] <= 90760088.0\ngini = 0.4906\nsamples = 517\nvalue = [294, 223]"] ;
343 -> 347 ;
348 [label="X[4] <= 75553648.0\ngini = 0.4931\nsamples = 501\nvalue = [280, 221]"] ;
347 -> 348 ;
349 [label="X[9] <= 91297080.0\ngini = 0.32\nsamples = 25\nvalue = [20, 5]"] ;
348 -> 349 ;
350 [label="X[19] <= 0.5\ngini = 0.2268\nsamples = 23\nvalue = [20, 3]"] ;
349 -> 350 ;
351 [label="X[13] <= 81368080.0\ngini = 0.0907\nsamples = 21\nvalue = [20, 1]"] ;
350 -> 351 ;
352 [label="gini = 0.0\nsamples = 1\nvalue = [0, 1]"] ;
351 -> 352 ;
353 [label="gini = 0.0\nsamples = 20\nvalue = [20, 0]"] ;
351 -> 353 ;
354 [label="gini = 0.0\nsamples = 2\nvalue = [0, 2]"] ;
350 -> 354 ;
355 [label="gini = 0.0\nsamples = 2\nvalue = [0, 2]"] ;
349 -> 355 ;
356 [label="X[8] <= 85681808.0\ngini = 0.4957\nsamples = 476\nvalue = [260, 216]"] ;
348 -> 356 ;
357 [label="X[8] <= 73942496.0\ngini = 0.4924\nsamples = 438\nvalue = [246, 192]"] ;
356 -> 357 ;
358 [label="X[13] <= 85288960.0\ngini = 0.4999\nsamples = 235\nvalue = [119, 116]"] ;
357 -> 358 ;
359 [label="gini = 0.3878\nsamples = 38\nvalue = [10, 28]"] ;
358 -> 359 ;
360 [label="gini = 0.4943\nsamples = 197\nvalue = [109, 88]"] ;
358 -> 360 ;
361 [label="X[13] <= 121770368.0\ngini = 0.4684\nsamples = 203\nvalue = [127, 76]"] ;
357 -> 361 ;
362 [label="gini = 0.4494\nsamples = 176\nvalue = [116, 60]"] ;
361 -> 362 ;
363 [label="gini = 0.4829\nsamples = 27\nvalue = [11, 16]"] ;
361 -> 363 ;
364 [label="X[9] <= 71226304.0\ngini = 0.4654\nsamples = 38\nvalue = [14, 24]"] ;
356 -> 364 ;
365 [label="X[8] <= 86062016.0\ngini = 0.2778\nsamples = 6\nvalue = [5, 1]"] ;
364 -> 365 ;
366 [label="gini = 0.0\nsamples = 1\nvalue = [0, 1]"] ;
365 -> 366 ;
367 [label="gini = 0.0\nsamples = 5\nvalue = [5, 0]"] ;
365 -> 367 ;
368 [label="X[2] <= 82838480.0\ngini = 0.4043\nsamples = 32\nvalue = [9, 23]"] ;
364 -> 368 ;
369 [label="gini = 0.3578\nsamples = 30\nvalue = [7, 23]"] ;
368 -> 369 ;
370 [label="gini = 0.0\nsamples = 2\nvalue = [2, 0]"] ;
368 -> 370 ;
371 [label="X[20] <= 0.5\ngini = 0.2188\nsamples = 16\nvalue = [14, 2]"] ;
347 -> 371 ;
372 [label="X[4] <= 73667760.0\ngini = 0.1244\nsamples = 15\nvalue = [14, 1]"] ;
371 -> 372 ;
373 [label="gini = 0.0\nsamples = 1\nvalue = [0, 1]"] ;
372 -> 373 ;
374 [label="gini = 0.0\nsamples = 14\nvalue = [14, 0]"] ;
372 -> 374 ;
375 [label="gini = 0.0\nsamples = 1\nvalue = [0, 1]"] ;
371 -> 375 ;
376 [label="gini = 0.0\nsamples = 4\nvalue = [0, 4]"] ;
338 -> 376 ;
377 [label="X[7] <= 114592240.0\ngini = 0.4946\nsamples = 125\nvalue = [56, 69]"] ;
329 -> 377 ;
378 [label="X[5] <= 100265216.0\ngini = 0.4777\nsamples = 109\nvalue = [43, 66]"] ;
377 -> 378 ;
379 [label="X[4] <= 107780392.0\ngini = 0.4061\nsamples = 60\nvalue = [17, 43]"] ;
378 -> 379 ;
380 [label="X[11] <= 72491328.0\ngini = 0.335\nsamples = 47\nvalue = [10, 37]"] ;
379 -> 380 ;
381 [label="X[35] <= 0.5\ngini = 0.1472\nsamples = 25\nvalue = [2, 23]"] ;
380 -> 381 ;
382 [label="X[12] <= 64370440.0\ngini = 0.0799\nsamples = 24\nvalue = [1, 23]"] ;
381 -> 382 ;
383 [label="gini = 0.0\nsamples = 1\nvalue = [1, 0]"] ;
382 -> 383 ;
384 [label="gini = 0.0\nsamples = 23\nvalue = [0, 23]"] ;
382 -> 384 ;
385 [label="gini = 0.0\nsamples = 1\nvalue = [1, 0]"] ;
381 -> 385 ;
386 [label="X[10] <= 74615968.0\ngini = 0.4628\nsamples = 22\nvalue = [8, 14]"] ;
380 -> 386 ;
387 [label="X[11] <= 80706600.0\ngini = 0.2449\nsamples = 7\nvalue = [6, 1]"] ;
386 -> 387 ;
388 [label="gini = 0.0\nsamples = 6\nvalue = [6, 0]"] ;
387 -> 388 ;
389 [label="gini = 0.0\nsamples = 1\nvalue = [0, 1]"] ;
387 -> 389 ;
390 [label="X[10] <= 86238856.0\ngini = 0.2311\nsamples = 15\nvalue = [2, 13]"] ;
386 -> 390 ;
391 [label="gini = 0.0\nsamples = 12\nvalue = [0, 12]"] ;
390 -> 391 ;
392 [label="X[4] <= 98032752.0\ngini = 0.4444\nsamples = 3\nvalue = [2, 1]"] ;
390 -> 392 ;
393 [label="gini = 0.0\nsamples = 2\nvalue = [2, 0]"] ;
392 -> 393 ;
394 [label="gini = 0.0\nsamples = 1\nvalue = [0, 1]"] ;
392 -> 394 ;
395 [label="X[5] <= 95466864.0\ngini = 0.497\nsamples = 13\nvalue = [7, 6]"] ;
379 -> 395 ;
396 [label="X[0] <= 113149840.0\ngini = 0.2449\nsamples = 7\nvalue = [1, 6]"] ;
395 -> 396 ;
397 [label="gini = 0.0\nsamples = 6\nvalue = [0, 6]"] ;
396 -> 397 ;
398 [label="gini = 0.0\nsamples = 1\nvalue = [1, 0]"] ;
396 -> 398 ;
399 [label="gini = 0.0\nsamples = 6\nvalue = [6, 0]"] ;
395 -> 399 ;
400 [label="X[0] <= 96417152.0\ngini = 0.4981\nsamples = 49\nvalue = [26, 23]"] ;
378 -> 400 ;
401 [label="X[9] <= 74108336.0\ngini = 0.4082\nsamples = 28\nvalue = [20, 8]"] ;
400 -> 401 ;
402 [label="X[1] <= 69997040.0\ngini = 0.142\nsamples = 13\nvalue = [12, 1]"] ;
401 -> 402 ;
403 [label="gini = 0.0\nsamples = 1\nvalue = [0, 1]"] ;
402 -> 403 ;
404 [label="gini = 0.0\nsamples = 12\nvalue = [12, 0]"] ;
402 -> 404 ;
405 [label="X[12] <= 84899056.0\ngini = 0.4978\nsamples = 15\nvalue = [8, 7]"] ;
401 -> 405 ;
406 [label="gini = 0.0\nsamples = 4\nvalue = [4, 0]"] ;
405 -> 406 ;
407 [label="X[11] <= 77027416.0\ngini = 0.4628\nsamples = 11\nvalue = [4, 7]"] ;
405 -> 407 ;
408 [label="gini = 0.0\nsamples = 4\nvalue = [0, 4]"] ;
407 -> 408 ;
409 [label="X[12] <= 90883192.0\ngini = 0.4898\nsamples = 7\nvalue = [4, 3]"] ;
407 -> 409 ;
410 [label="X[1] <= 92443920.0\ngini = 0.32\nsamples = 5\nvalue = [4, 1]"] ;
409 -> 410 ;
411 [label="gini = 0.0\nsamples = 4\nvalue = [4, 0]"] ;
410 -> 411 ;
412 [label="gini = 0.0\nsamples = 1\nvalue = [0, 1]"] ;
410 -> 412 ;
413 [label="gini = 0.0\nsamples = 2\nvalue = [0, 2]"] ;
409 -> 413 ;
414 [label="X[3] <= 72377120.0\ngini = 0.4082\nsamples = 21\nvalue = [6, 15]"] ;
400 -> 414 ;
415 [label="gini = 0.0\nsamples = 3\nvalue = [3, 0]"] ;
414 -> 415 ;
416 [label="X[11] <= 70736384.0\ngini = 0.2778\nsamples = 18\nvalue = [3, 15]"] ;
414 -> 416 ;
417 [label="gini = 0.0\nsamples = 2\nvalue = [2, 0]"] ;
416 -> 417 ;
418 [label="X[3] <= 132025448.0\ngini = 0.1172\nsamples = 16\nvalue = [1, 15]"] ;
416 -> 418 ;
419 [label="gini = 0.0\nsamples = 14\nvalue = [0, 14]"] ;
418 -> 419 ;
420 [label="X[7] <= 104066544.0\ngini = 0.5\nsamples = 2\nvalue = [1, 1]"] ;
418 -> 420 ;
421 [label="gini = 0.0\nsamples = 1\nvalue = [1, 0]"] ;
420 -> 421 ;
422 [label="gini = 0.0\nsamples = 1\nvalue = [0, 1]"] ;
420 -> 422 ;
423 [label="X[2] <= 73589304.0\ngini = 0.3047\nsamples = 16\nvalue = [13, 3]"] ;
377 -> 423 ;
424 [label="gini = 0.0\nsamples = 3\nvalue = [0, 3]"] ;
423 -> 424 ;
425 [label="gini = 0.0\nsamples = 13\nvalue = [13, 0]"] ;
423 -> 425 ;
426 [label="X[6] <= 76431496.0\ngini = 0.4356\nsamples = 78\nvalue = [53, 25]"] ;
322 -> 426 ;
427 [label="gini = 0.0\nsamples = 5\nvalue = [0, 5]"] ;
426 -> 427 ;
428 [label="X[7] <= 116734496.0\ngini = 0.3978\nsamples = 73\nvalue = [53, 20]"] ;
426 -> 428 ;
429 [label="X[35] <= 0.5\ngini = 0.3599\nsamples = 68\nvalue = [52, 16]"] ;
428 -> 429 ;
430 [label="X[4] <= 111150336.0\ngini = 0.3343\nsamples = 66\nvalue = [52, 14]"] ;
429 -> 430 ;
431 [label="X[3] <= 81696440.0\ngini = 0.2449\nsamples = 49\nvalue = [42, 7]"] ;
430 -> 431 ;
432 [label="X[4] <= 78556168.0\ngini = 0.4444\nsamples = 3\nvalue = [1, 2]"] ;
431 -> 432 ;
433 [label="gini = 0.0\nsamples = 1\nvalue = [1, 0]"] ;
432 -> 433 ;
434 [label="gini = 0.0\nsamples = 2\nvalue = [0, 2]"] ;
432 -> 434 ;
435 [label="X[26] <= 0.5\ngini = 0.1938\nsamples = 46\nvalue = [41, 5]"] ;
431 -> 435 ;
436 [label="X[10] <= 93994472.0\ngini = 0.162\nsamples = 45\nvalue = [41, 4]"] ;
435 -> 436 ;
437 [label="X[8] <= 74972864.0\ngini = 0.1271\nsamples = 44\nvalue = [41, 3]"] ;
436 -> 437 ;
438 [label="X[11] <= 87408192.0\ngini = 0.2907\nsamples = 17\nvalue = [14, 3]"] ;
437 -> 438 ;
439 [label="X[6] <= 92022752.0\ngini = 0.5\nsamples = 4\nvalue = [2, 2]"] ;
438 -> 439 ;
440 [label="gini = 0.0\nsamples = 2\nvalue = [2, 0]"] ;
439 -> 440 ;
441 [label="gini = 0.0\nsamples = 2\nvalue = [0, 2]"] ;
439 -> 441 ;
442 [label="X[4] <= 107650304.0\ngini = 0.142\nsamples = 13\nvalue = [12, 1]"] ;
438 -> 442 ;
443 [label="gini = 0.0\nsamples = 10\nvalue = [10, 0]"] ;
442 -> 443 ;
444 [label="X[2] <= 73613360.0\ngini = 0.4444\nsamples = 3\nvalue = [2, 1]"] ;
442 -> 444 ;
445 [label="gini = 0.0\nsamples = 2\nvalue = [2, 0]"] ;
444 -> 445 ;
446 [label="gini = 0.0\nsamples = 1\nvalue = [0, 1]"] ;
444 -> 446 ;
447 [label="gini = 0.0\nsamples = 27\nvalue = [27, 0]"] ;
437 -> 447 ;
448 [label="gini = 0.0\nsamples = 1\nvalue = [0, 1]"] ;
436 -> 448 ;
449 [label="gini = 0.0\nsamples = 1\nvalue = [0, 1]"] ;
435 -> 449 ;
450 [label="X[12] <= 90721456.0\ngini = 0.4844\nsamples = 17\nvalue = [10, 7]"] ;
430 -> 450 ;
451 [label="X[9] <= 76856888.0\ngini = 0.355\nsamples = 13\nvalue = [10, 3]"] ;
450 -> 451 ;
452 [label="X[6] <= 94016848.0\ngini = 0.48\nsamples = 5\nvalue = [2, 3]"] ;
451 -> 452 ;
453 [label="gini = 0.0\nsamples = 3\nvalue = [0, 3]"] ;
452 -> 453 ;
454 [label="gini = 0.0\nsamples = 2\nvalue = [2, 0]"] ;
452 -> 454 ;
455 [label="gini = 0.0\nsamples = 8\nvalue = [8, 0]"] ;
451 -> 455 ;
456 [label="gini = 0.0\nsamples = 4\nvalue = [0, 4]"] ;
450 -> 456 ;
457 [label="gini = 0.0\nsamples = 2\nvalue = [0, 2]"] ;
429 -> 457 ;
458 [label="X[8] <= 74281312.0\ngini = 0.32\nsamples = 5\nvalue = [1, 4]"] ;
428 -> 458 ;
459 [label="gini = 0.0\nsamples = 1\nvalue = [1, 0]"] ;
458 -> 459 ;
460 [label="gini = 0.0\nsamples = 4\nvalue = [0, 4]"] ;
458 -> 460 ;
461 [label="gini = 0.0\nsamples = 6\nvalue = [0, 6]"] ;
321 -> 461 ;
462 [label="X[8] <= 68132016.0\ngini = 0.3578\nsamples = 30\nvalue = [23, 7]"] ;
320 -> 462 ;
463 [label="gini = 0.0\nsamples = 2\nvalue = [0, 2]"] ;
462 -> 463 ;
464 [label="X[7] <= 109973392.0\ngini = 0.2934\nsamples = 28\nvalue = [23, 5]"] ;
462 -> 464 ;
465 [label="X[13] <= 132014216.0\ngini = 0.1653\nsamples = 22\nvalue = [20, 2]"] ;
464 -> 465 ;
466 [label="X[3] <= 132784464.0\ngini = 0.0907\nsamples = 21\nvalue = [20, 1]"] ;
465 -> 466 ;
467 [label="gini = 0.0\nsamples = 20\nvalue = [20, 0]"] ;
466 -> 467 ;
468 [label="gini = 0.0\nsamples = 1\nvalue = [0, 1]"] ;
466 -> 468 ;
469 [label="gini = 0.0\nsamples = 1\nvalue = [0, 1]"] ;
465 -> 469 ;
470 [label="X[12] <= 77708656.0\ngini = 0.5\nsamples = 6\nvalue = [3, 3]"] ;
464 -> 470 ;
471 [label="gini = 0.0\nsamples = 3\nvalue = [0, 3]"] ;
470 -> 471 ;
472 [label="gini = 0.0\nsamples = 3\nvalue = [3, 0]"] ;
470 -> 472 ;
473 [label="X[19] <= 0.5\ngini = 0.3953\nsamples = 59\nvalue = [43, 16]"] ;
317 -> 473 ;
474 [label="X[3] <= 126844448.0\ngini = 0.3706\nsamples = 57\nvalue = [43, 14]"] ;
473 -> 474 ;
475 [label="X[8] <= 79997376.0\ngini = 0.3412\nsamples = 55\nvalue = [43, 12]"] ;
474 -> 475 ;
476 [label="X[7] <= 63754652.0\ngini = 0.2076\nsamples = 34\nvalue = [30, 4]"] ;
475 -> 476 ;
477 [label="gini = 0.0\nsamples = 1\nvalue = [0, 1]"] ;
476 -> 477 ;
478 [label="X[13] <= 116999552.0\ngini = 0.1653\nsamples = 33\nvalue = [30, 3]"] ;
476 -> 478 ;
479 [label="X[6] <= 118888488.0\ngini = 0.1207\nsamples = 31\nvalue = [29, 2]"] ;
478 -> 479 ;
480 [label="X[11] <= 65916456.0\ngini = 0.0689\nsamples = 28\nvalue = [27, 1]"] ;
479 -> 480 ;
481 [label="X[4] <= 113836736.0\ngini = 0.32\nsamples = 5\nvalue = [4, 1]"] ;
480 -> 481 ;
482 [label="gini = 0.0\nsamples = 1\nvalue = [0, 1]"] ;
481 -> 482 ;
483 [label="gini = 0.0\nsamples = 4\nvalue = [4, 0]"] ;
481 -> 483 ;
484 [label="gini = 0.0\nsamples = 23\nvalue = [23, 0]"] ;
480 -> 484 ;
485 [label="X[2] <= 78004544.0\ngini = 0.4444\nsamples = 3\nvalue = [2, 1]"] ;
479 -> 485 ;
486 [label="gini = 0.0\nsamples = 2\nvalue = [2, 0]"] ;
485 -> 486 ;
487 [label="gini = 0.0\nsamples = 1\nvalue = [0, 1]"] ;
485 -> 487 ;
488 [label="X[26] <= 0.5\ngini = 0.5\nsamples = 2\nvalue = [1, 1]"] ;
478 -> 488 ;
489 [label="gini = 0.0\nsamples = 1\nvalue = [1, 0]"] ;
488 -> 489 ;
490 [label="gini = 0.0\nsamples = 1\nvalue = [0, 1]"] ;
488 -> 490 ;
491 [label="X[1] <= 83104704.0\ngini = 0.4717\nsamples = 21\nvalue = [13, 8]"] ;
475 -> 491 ;
492 [label="X[11] <= 70812592.0\ngini = 0.4444\nsamples = 9\nvalue = [3, 6]"] ;
491 -> 492 ;
493 [label="gini = 0.0\nsamples = 3\nvalue = [3, 0]"] ;
492 -> 493 ;
494 [label="gini = 0.0\nsamples = 6\nvalue = [0, 6]"] ;
492 -> 494 ;
495 [label="X[0] <= 107761304.0\ngini = 0.2778\nsamples = 12\nvalue = [10, 2]"] ;
491 -> 495 ;
496 [label="gini = 0.0\nsamples = 9\nvalue = [9, 0]"] ;
495 -> 496 ;
497 [label="X[4] <= 84098272.0\ngini = 0.4444\nsamples = 3\nvalue = [1, 2]"] ;
495 -> 497 ;
498 [label="gini = 0.0\nsamples = 1\nvalue = [1, 0]"] ;
497 -> 498 ;
499 [label="gini = 0.0\nsamples = 2\nvalue = [0, 2]"] ;
497 -> 499 ;
500 [label="gini = 0.0\nsamples = 2\nvalue = [0, 2]"] ;
474 -> 500 ;
501 [label="gini = 0.0\nsamples = 2\nvalue = [0, 2]"] ;
473 -> 501 ;
502 [label="X[12] <= 70573984.0\ngini = 0.4996\nsamples = 272\nvalue = [132, 140]"] ;
258 -> 502 ;
503 [label="X[8] <= 85809616.0\ngini = 0.2854\nsamples = 29\nvalue = [5, 24]"] ;
502 -> 503 ;
504 [label="X[13] <= 76512912.0\ngini = 0.142\nsamples = 26\nvalue = [2, 24]"] ;
503 -> 504 ;
505 [label="X[1] <= 128388736.0\ngini = 0.4444\nsamples = 3\nvalue = [2, 1]"] ;
504 -> 505 ;
506 [label="gini = 0.0\nsamples = 2\nvalue = [2, 0]"] ;
505 -> 506 ;
507 [label="gini = 0.0\nsamples = 1\nvalue = [0, 1]"] ;
505 -> 507 ;
508 [label="gini = 0.0\nsamples = 23\nvalue = [0, 23]"] ;
504 -> 508 ;
509 [label="gini = 0.0\nsamples = 3\nvalue = [3, 0]"] ;
503 -> 509 ;
510 [label="X[0] <= 80746832.0\ngini = 0.499\nsamples = 243\nvalue = [127, 116]"] ;
502 -> 510 ;
511 [label="X[0] <= 76824600.0\ngini = 0.4688\nsamples = 104\nvalue = [65, 39]"] ;
510 -> 511 ;
512 [label="X[11] <= 79811712.0\ngini = 0.4935\nsamples = 79\nvalue = [44, 35]"] ;
511 -> 512 ;
513 [label="gini = 0.0\nsamples = 6\nvalue = [0, 6]"] ;
512 -> 513 ;
514 [label="X[0] <= 76644560.0\ngini = 0.4789\nsamples = 73\nvalue = [44, 29]"] ;
512 -> 514 ;
515 [label="X[15] <= 0.5\ngini = 0.4621\nsamples = 69\nvalue = [44, 25]"] ;
514 -> 515 ;
516 [label="X[12] <= 91048848.0\ngini = 0.4289\nsamples = 61\nvalue = [42, 19]"] ;
515 -> 516 ;
517 [label="X[7] <= 62693680.0\ngini = 0.3922\nsamples = 56\nvalue = [41, 15]"] ;
516 -> 517 ;
518 [label="gini = 0.0\nsamples = 2\nvalue = [0, 2]"] ;
517 -> 518 ;
519 [label="X[4] <= 133073544.0\ngini = 0.3656\nsamples = 54\nvalue = [41, 13]"] ;
517 -> 519 ;
520 [label="X[8] <= 82998640.0\ngini = 0.3249\nsamples = 49\nvalue = [39, 10]"] ;
519 -> 520 ;
521 [label="X[12] <= 70790944.0\ngini = 0.2076\nsamples = 34\nvalue = [30, 4]"] ;
520 -> 521 ;
522 [label="gini = 0.0\nsamples = 1\nvalue = [0, 1]"] ;
521 -> 522 ;
523 [label="X[9] <= 67981328.0\ngini = 0.1653\nsamples = 33\nvalue = [30, 3]"] ;
521 -> 523 ;
524 [label="X[1] <= 111244496.0\ngini = 0.5\nsamples = 2\nvalue = [1, 1]"] ;
523 -> 524 ;
525 [label="gini = 0.0\nsamples = 1\nvalue = [0, 1]"] ;
524 -> 525 ;
526 [label="gini = 0.0\nsamples = 1\nvalue = [1, 0]"] ;
524 -> 526 ;
527 [label="X[10] <= 93583048.0\ngini = 0.1207\nsamples = 31\nvalue = [29, 2]"] ;
523 -> 527 ;
528 [label="X[7] <= 82456528.0\ngini = 0.0666\nsamples = 29\nvalue = [28, 1]"] ;
527 -> 528 ;
529 [label="gini = 0.0\nsamples = 27\nvalue = [27, 0]"] ;
528 -> 529 ;
530 [label="X[2] <= 67901640.0\ngini = 0.5\nsamples = 2\nvalue = [1, 1]"] ;
528 -> 530 ;
531 [label="gini = 0.0\nsamples = 1\nvalue = [1, 0]"] ;
530 -> 531 ;
532 [label="gini = 0.0\nsamples = 1\nvalue = [0, 1]"] ;
530 -> 532 ;
533 [label="X[3] <= 117699040.0\ngini = 0.5\nsamples = 2\nvalue = [1, 1]"] ;
527 -> 533 ;
534 [label="gini = 0.0\nsamples = 1\nvalue = [0, 1]"] ;
533 -> 534 ;
535 [label="gini = 0.0\nsamples = 1\nvalue = [1, 0]"] ;
533 -> 535 ;
536 [label="X[3] <= 91302760.0\ngini = 0.48\nsamples = 15\nvalue = [9, 6]"] ;
520 -> 536 ;
537 [label="gini = 0.0\nsamples = 6\nvalue = [6, 0]"] ;
536 -> 537 ;
538 [label="X[4] <= 121720496.0\ngini = 0.4444\nsamples = 9\nvalue = [3, 6]"] ;
536 -> 538 ;
539 [label="gini = 0.0\nsamples = 5\nvalue = [0, 5]"] ;
538 -> 539 ;
540 [label="X[6] <= 87946064.0\ngini = 0.375\nsamples = 4\nvalue = [3, 1]"] ;
538 -> 540 ;
541 [label="gini = 0.0\nsamples = 1\nvalue = [0, 1]"] ;
540 -> 541 ;
542 [label="gini = 0.0\nsamples = 3\nvalue = [3, 0]"] ;
540 -> 542 ;
543 [label="X[3] <= 133503936.0\ngini = 0.48\nsamples = 5\nvalue = [2, 3]"] ;
519 -> 543 ;
544 [label="gini = 0.0\nsamples = 3\nvalue = [0, 3]"] ;
543 -> 544 ;
545 [label="gini = 0.0\nsamples = 2\nvalue = [2, 0]"] ;
543 -> 545 ;
546 [label="X[7] <= 81657856.0\ngini = 0.32\nsamples = 5\nvalue = [1, 4]"] ;
516 -> 546 ;
547 [label="gini = 0.0\nsamples = 4\nvalue = [0, 4]"] ;
546 -> 547 ;
548 [label="gini = 0.0\nsamples = 1\nvalue = [1, 0]"] ;
546 -> 548 ;
549 [label="X[12] <= 87133112.0\ngini = 0.375\nsamples = 8\nvalue = [2, 6]"] ;
515 -> 549 ;
550 [label="gini = 0.0\nsamples = 6\nvalue = [0, 6]"] ;
549 -> 550 ;
551 [label="gini = 0.0\nsamples = 2\nvalue = [2, 0]"] ;
549 -> 551 ;
552 [label="gini = 0.0\nsamples = 4\nvalue = [0, 4]"] ;
514 -> 552 ;
553 [label="X[11] <= 100537560.0\ngini = 0.2688\nsamples = 25\nvalue = [21, 4]"] ;
511 -> 553 ;
554 [label="gini = 0.0\nsamples = 15\nvalue = [15, 0]"] ;
553 -> 554 ;
555 [label="X[1] <= 114692880.0\ngini = 0.48\nsamples = 10\nvalue = [6, 4]"] ;
553 -> 555 ;
556 [label="gini = 0.0\nsamples = 3\nvalue = [0, 3]"] ;
555 -> 556 ;
557 [label="X[8] <= 94740648.0\ngini = 0.2449\nsamples = 7\nvalue = [6, 1]"] ;
555 -> 557 ;
558 [label="gini = 0.0\nsamples = 6\nvalue = [6, 0]"] ;
557 -> 558 ;
559 [label="gini = 0.0\nsamples = 1\nvalue = [0, 1]"] ;
557 -> 559 ;
560 [label="X[11] <= 93845200.0\ngini = 0.4942\nsamples = 139\nvalue = [62, 77]"] ;
510 -> 560 ;
561 [label="X[0] <= 83769304.0\ngini = 0.431\nsamples = 70\nvalue = [22, 48]"] ;
560 -> 561 ;
562 [label="gini = 0.0\nsamples = 13\nvalue = [0, 13]"] ;
561 -> 562 ;
563 [label="X[0] <= 107234552.0\ngini = 0.474\nsamples = 57\nvalue = [22, 35]"] ;
561 -> 563 ;
564 [label="X[5] <= 100826176.0\ngini = 0.4996\nsamples = 37\nvalue = [19, 18]"] ;
563 -> 564 ;
565 [label="X[12] <= 78311680.0\ngini = 0.4444\nsamples = 21\nvalue = [7, 14]"] ;
564 -> 565 ;
566 [label="gini = 0.0\nsamples = 8\nvalue = [0, 8]"] ;
565 -> 566 ;
567 [label="X[0] <= 100647744.0\ngini = 0.497\nsamples = 13\nvalue = [7, 6]"] ;
565 -> 567 ;
568 [label="X[11] <= 88104704.0\ngini = 0.375\nsamples = 8\nvalue = [2, 6]"] ;
567 -> 568 ;
569 [label="gini = 0.0\nsamples = 5\nvalue = [0, 5]"] ;
568 -> 569 ;
570 [label="X[29] <= 0.5\ngini = 0.4444\nsamples = 3\nvalue = [2, 1]"] ;
568 -> 570 ;
571 [label="gini = 0.0\nsamples = 2\nvalue = [2, 0]"] ;
570 -> 571 ;
572 [label="gini = 0.0\nsamples = 1\nvalue = [0, 1]"] ;
570 -> 572 ;
573 [label="gini = 0.0\nsamples = 5\nvalue = [5, 0]"] ;
567 -> 573 ;
574 [label="X[4] <= 83408640.0\ngini = 0.375\nsamples = 16\nvalue = [12, 4]"] ;
564 -> 574 ;
575 [label="X[7] <= 106455312.0\ngini = 0.375\nsamples = 4\nvalue = [1, 3]"] ;
574 -> 575 ;
576 [label="gini = 0.0\nsamples = 3\nvalue = [0, 3]"] ;
575 -> 576 ;
577 [label="gini = 0.0\nsamples = 1\nvalue = [1, 0]"] ;
575 -> 577 ;
578 [label="X[1] <= 111446448.0\ngini = 0.1528\nsamples = 12\nvalue = [11, 1]"] ;
574 -> 578 ;
579 [label="gini = 0.0\nsamples = 10\nvalue = [10, 0]"] ;
578 -> 579 ;
580 [label="X[9] <= 98490512.0\ngini = 0.5\nsamples = 2\nvalue = [1, 1]"] ;
578 -> 580 ;
581 [label="gini = 0.0\nsamples = 1\nvalue = [0, 1]"] ;
580 -> 581 ;
582 [label="gini = 0.0\nsamples = 1\nvalue = [1, 0]"] ;
580 -> 582 ;
583 [label="X[11] <= 80207936.0\ngini = 0.255\nsamples = 20\nvalue = [3, 17]"] ;
563 -> 583 ;
584 [label="X[13] <= 104099360.0\ngini = 0.5\nsamples = 6\nvalue = [3, 3]"] ;
583 -> 584 ;
585 [label="gini = 0.0\nsamples = 3\nvalue = [0, 3]"] ;
584 -> 585 ;
586 [label="gini = 0.0\nsamples = 3\nvalue = [3, 0]"] ;
584 -> 586 ;
587 [label="gini = 0.0\nsamples = 14\nvalue = [0, 14]"] ;
583 -> 587 ;
588 [label="X[12] <= 74841032.0\ngini = 0.4873\nsamples = 69\nvalue = [40, 29]"] ;
560 -> 588 ;
589 [label="X[9] <= 72529824.0\ngini = 0.2975\nsamples = 11\nvalue = [2, 9]"] ;
588 -> 589 ;
590 [label="X[0] <= 91175792.0\ngini = 0.4444\nsamples = 3\nvalue = [2, 1]"] ;
589 -> 590 ;
591 [label="gini = 0.0\nsamples = 2\nvalue = [2, 0]"] ;
590 -> 591 ;
592 [label="gini = 0.0\nsamples = 1\nvalue = [0, 1]"] ;
590 -> 592 ;
593 [label="gini = 0.0\nsamples = 8\nvalue = [0, 8]"] ;
589 -> 593 ;
594 [label="X[6] <= 97128248.0\ngini = 0.4518\nsamples = 58\nvalue = [38, 20]"] ;
588 -> 594 ;
595 [label="X[2] <= 78300592.0\ngini = 0.4844\nsamples = 17\nvalue = [7, 10]"] ;
594 -> 595 ;
596 [label="X[7] <= 120045248.0\ngini = 0.4082\nsamples = 14\nvalue = [4, 10]"] ;
595 -> 596 ;
597 [label="X[12] <= 76798424.0\ngini = 0.2778\nsamples = 12\nvalue = [2, 10]"] ;
596 -> 597 ;
598 [label="gini = 0.0\nsamples = 1\nvalue = [1, 0]"] ;
597 -> 598 ;
599 [label="X[12] <= 93065464.0\ngini = 0.1653\nsamples = 11\nvalue = [1, 10]"] ;
597 -> 599 ;
600 [label="gini = 0.0\nsamples = 10\nvalue = [0, 10]"] ;
599 -> 600 ;
601 [label="gini = 0.0\nsamples = 1\nvalue = [1, 0]"] ;
599 -> 601 ;
602 [label="gini = 0.0\nsamples = 2\nvalue = [2, 0]"] ;
596 -> 602 ;
603 [label="gini = 0.0\nsamples = 3\nvalue = [3, 0]"] ;
595 -> 603 ;
604 [label="X[0] <= 96885088.0\ngini = 0.3688\nsamples = 41\nvalue = [31, 10]"] ;
594 -> 604 ;
605 [label="X[8] <= 81035600.0\ngini = 0.4764\nsamples = 23\nvalue = [14, 9]"] ;
604 -> 605 ;
606 [label="X[7] <= 79554880.0\ngini = 0.4922\nsamples = 16\nvalue = [7, 9]"] ;
605 -> 606 ;
607 [label="gini = 0.0\nsamples = 5\nvalue = [5, 0]"] ;
606 -> 607 ;
608 [label="X[5] <= 75923952.0\ngini = 0.2975\nsamples = 11\nvalue = [2, 9]"] ;
606 -> 608 ;
609 [label="X[7] <= 89764560.0\ngini = 0.4444\nsamples = 3\nvalue = [2, 1]"] ;
608 -> 609 ;
610 [label="gini = 0.0\nsamples = 1\nvalue = [0, 1]"] ;
609 -> 610 ;
611 [label="gini = 0.0\nsamples = 2\nvalue = [2, 0]"] ;
609 -> 611 ;
612 [label="gini = 0.0\nsamples = 8\nvalue = [0, 8]"] ;
608 -> 612 ;
613 [label="gini = 0.0\nsamples = 7\nvalue = [7, 0]"] ;
605 -> 613 ;
614 [label="X[9] <= 115787616.0\ngini = 0.1049\nsamples = 18\nvalue = [17, 1]"] ;
604 -> 614 ;
615 [label="gini = 0.0\nsamples = 17\nvalue = [17, 0]"] ;
614 -> 615 ;
616 [label="gini = 0.0\nsamples = 1\nvalue = [0, 1]"] ;
614 -> 616 ;
617 [label="gini = 0.0\nsamples = 10\nvalue = [10, 0]"] ;
257 -> 617 ;
618 [label="X[5] <= 117456520.0\ngini = 0.4569\nsamples = 252\nvalue = [163, 89]"] ;
256 -> 618 ;
619 [label="X[4] <= 71361776.0\ngini = 0.4471\nsamples = 246\nvalue = [163, 83]"] ;
618 -> 619 ;
620 [label="gini = 0.0\nsamples = 4\nvalue = [0, 4]"] ;
619 -> 620 ;
621 [label="X[8] <= 89011352.0\ngini = 0.4398\nsamples = 242\nvalue = [163, 79]"] ;
619 -> 621 ;
622 [label="X[11] <= 77506944.0\ngini = 0.4268\nsamples = 230\nvalue = [159, 71]"] ;
621 -> 622 ;
623 [label="X[5] <= 71530368.0\ngini = 0.4942\nsamples = 65\nvalue = [36, 29]"] ;
622 -> 623 ;
624 [label="X[26] <= 0.5\ngini = 0.2604\nsamples = 13\nvalue = [2, 11]"] ;
623 -> 624 ;
625 [label="X[12] <= 77708656.0\ngini = 0.1528\nsamples = 12\nvalue = [1, 11]"] ;
624 -> 625 ;
626 [label="gini = 0.0\nsamples = 9\nvalue = [0, 9]"] ;
625 -> 626 ;
627 [label="X[9] <= 85747664.0\ngini = 0.4444\nsamples = 3\nvalue = [1, 2]"] ;
625 -> 627 ;
628 [label="gini = 0.0\nsamples = 2\nvalue = [0, 2]"] ;
627 -> 628 ;
629 [label="gini = 0.0\nsamples = 1\nvalue = [1, 0]"] ;
627 -> 629 ;
630 [label="gini = 0.0\nsamples = 1\nvalue = [1, 0]"] ;
624 -> 630 ;
631 [label="X[11] <= 76829536.0\ngini = 0.4527\nsamples = 52\nvalue = [34, 18]"] ;
623 -> 631 ;
632 [label="X[13] <= 99814400.0\ngini = 0.4002\nsamples = 47\nvalue = [34, 13]"] ;
631 -> 632 ;
633 [label="X[20] <= 0.5\ngini = 0.1528\nsamples = 24\nvalue = [22, 2]"] ;
632 -> 633 ;
634 [label="X[12] <= 72770088.0\ngini = 0.0832\nsamples = 23\nvalue = [22, 1]"] ;
633 -> 634 ;
635 [label="X[7] <= 66796772.0\ngini = 0.4444\nsamples = 3\nvalue = [2, 1]"] ;
634 -> 635 ;
636 [label="gini = 0.0\nsamples = 2\nvalue = [2, 0]"] ;
635 -> 636 ;
637 [label="gini = 0.0\nsamples = 1\nvalue = [0, 1]"] ;
635 -> 637 ;
638 [label="gini = 0.0\nsamples = 20\nvalue = [20, 0]"] ;
634 -> 638 ;
639 [label="gini = 0.0\nsamples = 1\nvalue = [0, 1]"] ;
633 -> 639 ;
640 [label="X[7] <= 90214416.0\ngini = 0.4991\nsamples = 23\nvalue = [12, 11]"] ;
632 -> 640 ;
641 [label="X[12] <= 76947600.0\ngini = 0.3367\nsamples = 14\nvalue = [11, 3]"] ;
640 -> 641 ;
642 [label="gini = 0.0\nsamples = 3\nvalue = [0, 3]"] ;
641 -> 642 ;
643 [label="gini = 0.0\nsamples = 11\nvalue = [11, 0]"] ;
641 -> 643 ;
644 [label="X[5] <= 73346176.0\ngini = 0.1975\nsamples = 9\nvalue = [1, 8]"] ;
640 -> 644 ;
645 [label="gini = 0.0\nsamples = 1\nvalue = [1, 0]"] ;
644 -> 645 ;
646 [label="gini = 0.0\nsamples = 8\nvalue = [0, 8]"] ;
644 -> 646 ;
647 [label="gini = 0.0\nsamples = 5\nvalue = [0, 5]"] ;
631 -> 647 ;
648 [label="X[9] <= 126665600.0\ngini = 0.3795\nsamples = 165\nvalue = [123, 42]"] ;
622 -> 648 ;
649 [label="X[0] <= 96178440.0\ngini = 0.3622\nsamples = 160\nvalue = [122, 38]"] ;
648 -> 649 ;
650 [label="X[8] <= 68455888.0\ngini = 0.4053\nsamples = 131\nvalue = [94, 37]"] ;
649 -> 650 ;
651 [label="gini = 0.0\nsamples = 15\nvalue = [15, 0]"] ;
650 -> 651 ;
652 [label="X[8] <= 81002528.0\ngini = 0.4345\nsamples = 116\nvalue = [79, 37]"] ;
650 -> 652 ;
653 [label="X[10] <= 98212704.0\ngini = 0.4666\nsamples = 89\nvalue = [56, 33]"] ;
652 -> 653 ;
654 [label="X[1] <= 132420024.0\ngini = 0.3967\nsamples = 55\nvalue = [40, 15]"] ;
653 -> 654 ;
655 [label="X[13] <= 96724056.0\ngini = 0.3702\nsamples = 53\nvalue = [40, 13]"] ;
654 -> 655 ;
656 [label="gini = 0.0\nsamples = 13\nvalue = [13, 0]"] ;
655 -> 656 ;
657 [label="X[13] <= 97100112.0\ngini = 0.4387\nsamples = 40\nvalue = [27, 13]"] ;
655 -> 657 ;
658 [label="gini = 0.0\nsamples = 2\nvalue = [0, 2]"] ;
657 -> 658 ;
659 [label="X[7] <= 75236240.0\ngini = 0.4114\nsamples = 38\nvalue = [27, 11]"] ;
657 -> 659 ;
660 [label="gini = 0.0\nsamples = 9\nvalue = [9, 0]"] ;
659 -> 660 ;
661 [label="X[8] <= 75123976.0\ngini = 0.4709\nsamples = 29\nvalue = [18, 11]"] ;
659 -> 661 ;
662 [label="X[6] <= 111985584.0\ngini = 0.4922\nsamples = 16\nvalue = [7, 9]"] ;
661 -> 662 ;
663 [label="X[1] <= 76823488.0\ngini = 0.426\nsamples = 13\nvalue = [4, 9]"] ;
662 -> 663 ;
664 [label="gini = 0.0\nsamples = 2\nvalue = [2, 0]"] ;
663 -> 664 ;
665 [label="X[11] <= 106972392.0\ngini = 0.2975\nsamples = 11\nvalue = [2, 9]"] ;
663 -> 665 ;
666 [label="gini = 0.0\nsamples = 8\nvalue = [0, 8]"] ;
665 -> 666 ;
667 [label="X[11] <= 118607056.0\ngini = 0.4444\nsamples = 3\nvalue = [2, 1]"] ;
665 -> 667 ;
668 [label="gini = 0.0\nsamples = 2\nvalue = [2, 0]"] ;
667 -> 668 ;
669 [label="gini = 0.0\nsamples = 1\nvalue = [0, 1]"] ;
667 -> 669 ;
670 [label="gini = 0.0\nsamples = 3\nvalue = [3, 0]"] ;
662 -> 670 ;
671 [label="X[4] <= 128222456.0\ngini = 0.2604\nsamples = 13\nvalue = [11, 2]"] ;
661 -> 671 ;
672 [label="X[13] <= 130778336.0\ngini = 0.1528\nsamples = 12\nvalue = [11, 1]"] ;
671 -> 672 ;
673 [label="gini = 0.0\nsamples = 11\nvalue = [11, 0]"] ;
672 -> 673 ;
674 [label="gini = 0.0\nsamples = 1\nvalue = [0, 1]"] ;
672 -> 674 ;
675 [label="gini = 0.0\nsamples = 1\nvalue = [0, 1]"] ;
671 -> 675 ;
676 [label="gini = 0.0\nsamples = 2\nvalue = [0, 2]"] ;
654 -> 676 ;
677 [label="X[8] <= 80103760.0\ngini = 0.4983\nsamples = 34\nvalue = [16, 18]"] ;
653 -> 677 ;
678 [label="X[2] <= 75765888.0\ngini = 0.4898\nsamples = 28\nvalue = [16, 12]"] ;
677 -> 678 ;
679 [label="X[8] <= 68986960.0\ngini = 0.42\nsamples = 20\nvalue = [14, 6]"] ;
678 -> 679 ;
680 [label="gini = 0.0\nsamples = 3\nvalue = [0, 3]"] ;
679 -> 680 ;
681 [label="X[15] <= 0.5\ngini = 0.2907\nsamples = 17\nvalue = [14, 3]"] ;
679 -> 681 ;
682 [label="X[0] <= 71741040.0\ngini = 0.2188\nsamples = 16\nvalue = [14, 2]"] ;
681 -> 682 ;
683 [label="X[7] <= 68609872.0\ngini = 0.4444\nsamples = 6\nvalue = [4, 2]"] ;
682 -> 683 ;
684 [label="gini = 0.0\nsamples = 4\nvalue = [4, 0]"] ;
683 -> 684 ;
685 [label="gini = 0.0\nsamples = 2\nvalue = [0, 2]"] ;
683 -> 685 ;
686 [label="gini = 0.0\nsamples = 10\nvalue = [10, 0]"] ;
682 -> 686 ;
687 [label="gini = 0.0\nsamples = 1\nvalue = [0, 1]"] ;
681 -> 687 ;
688 [label="X[20] <= 0.5\ngini = 0.375\nsamples = 8\nvalue = [2, 6]"] ;
678 -> 688 ;
689 [label="X[5] <= 80099520.0\ngini = 0.2449\nsamples = 7\nvalue = [1, 6]"] ;
688 -> 689 ;
690 [label="gini = 0.0\nsamples = 1\nvalue = [1, 0]"] ;
689 -> 690 ;
691 [label="gini = 0.0\nsamples = 6\nvalue = [0, 6]"] ;
689 -> 691 ;
692 [label="gini = 0.0\nsamples = 1\nvalue = [1, 0]"] ;
688 -> 692 ;
693 [label="gini = 0.0\nsamples = 6\nvalue = [0, 6]"] ;
677 -> 693 ;
694 [label="X[11] <= 80143120.0\ngini = 0.2524\nsamples = 27\nvalue = [23, 4]"] ;
652 -> 694 ;
695 [label="gini = 0.0\nsamples = 2\nvalue = [0, 2]"] ;
694 -> 695 ;
696 [label="X[2] <= 72971112.0\ngini = 0.1472\nsamples = 25\nvalue = [23, 2]"] ;
694 -> 696 ;
697 [label="gini = 0.0\nsamples = 1\nvalue = [0, 1]"] ;
696 -> 697 ;
698 [label="X[21] <= 0.5\ngini = 0.0799\nsamples = 24\nvalue = [23, 1]"] ;
696 -> 698 ;
699 [label="gini = 0.0\nsamples = 23\nvalue = [23, 0]"] ;
698 -> 699 ;
700 [label="gini = 0.0\nsamples = 1\nvalue = [0, 1]"] ;
698 -> 700 ;
701 [label="X[32] <= 0.5\ngini = 0.0666\nsamples = 29\nvalue = [28, 1]"] ;
649 -> 701 ;
702 [label="gini = 0.0\nsamples = 26\nvalue = [26, 0]"] ;
701 -> 702 ;
703 [label="X[2] <= 77930744.0\ngini = 0.4444\nsamples = 3\nvalue = [2, 1]"] ;
701 -> 703 ;
704 [label="gini = 0.0\nsamples = 1\nvalue = [0, 1]"] ;
703 -> 704 ;
705 [label="gini = 0.0\nsamples = 2\nvalue = [2, 0]"] ;
703 -> 705 ;
706 [label="X[2] <= 78518720.0\ngini = 0.32\nsamples = 5\nvalue = [1, 4]"] ;
648 -> 706 ;
707 [label="gini = 0.0\nsamples = 4\nvalue = [0, 4]"] ;
706 -> 707 ;
708 [label="gini = 0.0\nsamples = 1\nvalue = [1, 0]"] ;
706 -> 708 ;
709 [label="X[2] <= 82646880.0\ngini = 0.4444\nsamples = 12\nvalue = [4, 8]"] ;
621 -> 709 ;
710 [label="X[1] <= 123857896.0\ngini = 0.1975\nsamples = 9\nvalue = [1, 8]"] ;
709 -> 710 ;
711 [label="gini = 0.0\nsamples = 8\nvalue = [0, 8]"] ;
710 -> 711 ;
712 [label="gini = 0.0\nsamples = 1\nvalue = [1, 0]"] ;
710 -> 712 ;
713 [label="gini = 0.0\nsamples = 3\nvalue = [3, 0]"] ;
709 -> 713 ;
714 [label="gini = 0.0\nsamples = 6\nvalue = [0, 6]"] ;
618 -> 714 ;
715 [label="X[4] <= 128354648.0\ngini = 0.4976\nsamples = 1635\nvalue = [874, 761]"] ;
121 -> 715 ;
716 [label="X[11] <= 84478128.0\ngini = 0.4994\nsamples = 1418\nvalue = [733, 685]"] ;
715 -> 716 ;
717 [label="X[0] <= 67377120.0\ngini = 0.4948\nsamples = 461\nvalue = [207, 254]"] ;
716 -> 717 ;
718 [label="X[4] <= 120510288.0\ngini = 0.431\nsamples = 35\nvalue = [24, 11]"] ;
717 -> 718 ;
719 [label="X[1] <= 80226352.0\ngini = 0.4991\nsamples = 23\nvalue = [12, 11]"] ;
718 -> 719 ;
720 [label="X[8] <= 67866640.0\ngini = 0.355\nsamples = 13\nvalue = [3, 10]"] ;
719 -> 720 ;
721 [label="X[6] <= 94678384.0\ngini = 0.375\nsamples = 4\nvalue = [3, 1]"] ;
720 -> 721 ;
722 [label="gini = 0.0\nsamples = 1\nvalue = [0, 1]"] ;
721 -> 722 ;
723 [label="gini = 0.0\nsamples = 3\nvalue = [3, 0]"] ;
721 -> 723 ;
724 [label="gini = 0.0\nsamples = 9\nvalue = [0, 9]"] ;
720 -> 724 ;
725 [label="X[1] <= 101121760.0\ngini = 0.18\nsamples = 10\nvalue = [9, 1]"] ;
719 -> 725 ;
726 [label="gini = 0.0\nsamples = 9\nvalue = [9, 0]"] ;
725 -> 726 ;
727 [label="gini = 0.0\nsamples = 1\nvalue = [0, 1]"] ;
725 -> 727 ;
728 [label="gini = 0.0\nsamples = 12\nvalue = [12, 0]"] ;
718 -> 728 ;
729 [label="X[1] <= 70295504.0\ngini = 0.4901\nsamples = 426\nvalue = [183, 243]"] ;
717 -> 729 ;
730 [label="X[1] <= 65807648.0\ngini = 0.4903\nsamples = 79\nvalue = [45, 34]"] ;
729 -> 730 ;
731 [label="X[9] <= 131208528.0\ngini = 0.375\nsamples = 24\nvalue = [6, 18]"] ;
730 -> 731 ;
732 [label="X[10] <= 102288816.0\ngini = 0.2975\nsamples = 22\nvalue = [4, 18]"] ;
731 -> 732 ;
733 [label="gini = 0.0\nsamples = 1\nvalue = [1, 0]"] ;
732 -> 733 ;
734 [label="X[5] <= 64245404.0\ngini = 0.2449\nsamples = 21\nvalue = [3, 18]"] ;
732 -> 734 ;
735 [label="gini = 0.0\nsamples = 1\nvalue = [1, 0]"] ;
734 -> 735 ;
736 [label="X[6] <= 71409560.0\ngini = 0.18\nsamples = 20\nvalue = [2, 18]"] ;
734 -> 736 ;
737 [label="X[9] <= 130408304.0\ngini = 0.5\nsamples = 4\nvalue = [2, 2]"] ;
736 -> 737 ;
738 [label="gini = 0.0\nsamples = 2\nvalue = [2, 0]"] ;
737 -> 738 ;
739 [label="gini = 0.0\nsamples = 2\nvalue = [0, 2]"] ;
737 -> 739 ;
740 [label="gini = 0.0\nsamples = 16\nvalue = [0, 16]"] ;
736 -> 740 ;
741 [label="gini = 0.0\nsamples = 2\nvalue = [2, 0]"] ;
731 -> 741 ;
742 [label="X[4] <= 111220888.0\ngini = 0.4126\nsamples = 55\nvalue = [39, 16]"] ;
730 -> 742 ;
743 [label="X[12] <= 66577088.0\ngini = 0.4592\nsamples = 14\nvalue = [5, 9]"] ;
742 -> 743 ;
744 [label="gini = 0.0\nsamples = 5\nvalue = [0, 5]"] ;
743 -> 744 ;
745 [label="X[2] <= 71204256.0\ngini = 0.4938\nsamples = 9\nvalue = [5, 4]"] ;
743 -> 745 ;
746 [label="gini = 0.0\nsamples = 4\nvalue = [4, 0]"] ;
745 -> 746 ;
747 [label="X[13] <= 123287184.0\ngini = 0.32\nsamples = 5\nvalue = [1, 4]"] ;
745 -> 747 ;
748 [label="gini = 0.0\nsamples = 4\nvalue = [0, 4]"] ;
747 -> 748 ;
749 [label="gini = 0.0\nsamples = 1\nvalue = [1, 0]"] ;
747 -> 749 ;
750 [label="X[2] <= 67921696.0\ngini = 0.2832\nsamples = 41\nvalue = [34, 7]"] ;
742 -> 750 ;
751 [label="gini = 0.0\nsamples = 3\nvalue = [0, 3]"] ;
750 -> 751 ;
752 [label="X[6] <= 64840680.0\ngini = 0.1884\nsamples = 38\nvalue = [34, 4]"] ;
750 -> 752 ;
753 [label="gini = 0.0\nsamples = 1\nvalue = [0, 1]"] ;
752 -> 753 ;
754 [label="X[12] <= 83756336.0\ngini = 0.149\nsamples = 37\nvalue = [34, 3]"] ;
752 -> 754 ;
755 [label="X[33] <= 0.5\ngini = 0.1078\nsamples = 35\nvalue = [33, 2]"] ;
754 -> 755 ;
756 [label="X[24] <= 0.5\ngini = 0.0588\nsamples = 33\nvalue = [32, 1]"] ;
755 -> 756 ;
757 [label="gini = 0.0\nsamples = 29\nvalue = [29, 0]"] ;
756 -> 757 ;
758 [label="X[8] <= 68959936.0\ngini = 0.375\nsamples = 4\nvalue = [3, 1]"] ;
756 -> 758 ;
759 [label="gini = 0.0\nsamples = 1\nvalue = [0, 1]"] ;
758 -> 759 ;
760 [label="gini = 0.0\nsamples = 3\nvalue = [3, 0]"] ;
758 -> 760 ;
761 [label="X[6] <= 81787072.0\ngini = 0.5\nsamples = 2\nvalue = [1, 1]"] ;
755 -> 761 ;
762 [label="gini = 0.0\nsamples = 1\nvalue = [0, 1]"] ;
761 -> 762 ;
763 [label="gini = 0.0\nsamples = 1\nvalue = [1, 0]"] ;
761 -> 763 ;
764 [label="X[0] <= 96772992.0\ngini = 0.5\nsamples = 2\nvalue = [1, 1]"] ;
754 -> 764 ;
765 [label="gini = 0.0\nsamples = 1\nvalue = [0, 1]"] ;
764 -> 765 ;
766 [label="gini = 0.0\nsamples = 1\nvalue = [1, 0]"] ;
764 -> 766 ;
767 [label="X[7] <= 106990912.0\ngini = 0.4791\nsamples = 347\nvalue = [138, 209]"] ;
729 -> 767 ;
768 [label="X[11] <= 70657920.0\ngini = 0.4683\nsamples = 310\nvalue = [116, 194]"] ;
767 -> 768 ;
769 [label="X[6] <= 81381832.0\ngini = 0.48\nsamples = 25\nvalue = [15, 10]"] ;
768 -> 769 ;
770 [label="X[1] <= 70588864.0\ngini = 0.4444\nsamples = 12\nvalue = [4, 8]"] ;
769 -> 770 ;
771 [label="gini = 0.0\nsamples = 3\nvalue = [3, 0]"] ;
770 -> 771 ;
772 [label="X[8] <= 74864144.0\ngini = 0.1975\nsamples = 9\nvalue = [1, 8]"] ;
770 -> 772 ;
773 [label="gini = 0.0\nsamples = 8\nvalue = [0, 8]"] ;
772 -> 773 ;
774 [label="gini = 0.0\nsamples = 1\nvalue = [1, 0]"] ;
772 -> 774 ;
775 [label="X[13] <= 70407312.0\ngini = 0.2604\nsamples = 13\nvalue = [11, 2]"] ;
769 -> 775 ;
776 [label="gini = 0.0\nsamples = 1\nvalue = [0, 1]"] ;
775 -> 776 ;
777 [label="X[13] <= 126485232.0\ngini = 0.1528\nsamples = 12\nvalue = [11, 1]"] ;
775 -> 777 ;
778 [label="gini = 0.0\nsamples = 11\nvalue = [11, 0]"] ;
777 -> 778 ;
779 [label="gini = 0.0\nsamples = 1\nvalue = [0, 1]"] ;
777 -> 779 ;
780 [label="X[1] <= 76447248.0\ngini = 0.4576\nsamples = 285\nvalue = [101, 184]"] ;
768 -> 780 ;
781 [label="X[6] <= 80437952.0\ngini = 0.3599\nsamples = 85\nvalue = [20, 65]"] ;
780 -> 781 ;
782 [label="X[3] <= 87442824.0\ngini = 0.1699\nsamples = 32\nvalue = [3, 29]"] ;
781 -> 782 ;
783 [label="gini = 0.0\nsamples = 1\nvalue = [1, 0]"] ;
782 -> 783 ;
784 [label="X[4] <= 127429920.0\ngini = 0.1207\nsamples = 31\nvalue = [2, 29]"] ;
782 -> 784 ;
785 [label="gini = 0.0\nsamples = 26\nvalue = [0, 26]"] ;
784 -> 785 ;
786 [label="X[5] <= 81448048.0\ngini = 0.48\nsamples = 5\nvalue = [2, 3]"] ;
784 -> 786 ;
787 [label="gini = 0.0\nsamples = 3\nvalue = [0, 3]"] ;
786 -> 787 ;
788 [label="gini = 0.0\nsamples = 2\nvalue = [2, 0]"] ;
786 -> 788 ;
789 [label="X[11] <= 70898200.0\ngini = 0.4357\nsamples = 53\nvalue = [17, 36]"] ;
781 -> 789 ;
790 [label="gini = 0.0\nsamples = 9\nvalue = [0, 9]"] ;
789 -> 790 ;
791 [label="X[10] <= 114635328.0\ngini = 0.4742\nsamples = 44\nvalue = [17, 27]"] ;
789 -> 791 ;
792 [label="X[4] <= 122076912.0\ngini = 0.355\nsamples = 26\nvalue = [6, 20]"] ;
791 -> 792 ;
793 [label="X[4] <= 116233680.0\ngini = 0.4898\nsamples = 14\nvalue = [6, 8]"] ;
792 -> 793 ;
794 [label="X[8] <= 68440272.0\ngini = 0.32\nsamples = 10\nvalue = [2, 8]"] ;
793 -> 794 ;
795 [label="gini = 0.0\nsamples = 1\nvalue = [1, 0]"] ;
794 -> 795 ;
796 [label="X[27] <= 0.5\ngini = 0.1975\nsamples = 9\nvalue = [1, 8]"] ;
794 -> 796 ;
797 [label="gini = 0.0\nsamples = 7\nvalue = [0, 7]"] ;
796 -> 797 ;
798 [label="X[8] <= 74956192.0\ngini = 0.5\nsamples = 2\nvalue = [1, 1]"] ;
796 -> 798 ;
799 [label="gini = 0.0\nsamples = 1\nvalue = [1, 0]"] ;
798 -> 799 ;
800 [label="gini = 0.0\nsamples = 1\nvalue = [0, 1]"] ;
798 -> 800 ;
801 [label="gini = 0.0\nsamples = 4\nvalue = [4, 0]"] ;
793 -> 801 ;
802 [label="gini = 0.0\nsamples = 12\nvalue = [0, 12]"] ;
792 -> 802 ;
803 [label="X[4] <= 97345504.0\ngini = 0.4753\nsamples = 18\nvalue = [11, 7]"] ;
791 -> 803 ;
804 [label="gini = 0.0\nsamples = 2\nvalue = [0, 2]"] ;
803 -> 804 ;
805 [label="X[3] <= 119863360.0\ngini = 0.4297\nsamples = 16\nvalue = [11, 5]"] ;
803 -> 805 ;
806 [label="gini = 0.0\nsamples = 6\nvalue = [6, 0]"] ;
805 -> 806 ;
807 [label="X[6] <= 115765704.0\ngini = 0.5\nsamples = 10\nvalue = [5, 5]"] ;
805 -> 807 ;
808 [label="X[11] <= 71303632.0\ngini = 0.4082\nsamples = 7\nvalue = [5, 2]"] ;
807 -> 808 ;
809 [label="X[7] <= 76761080.0\ngini = 0.4444\nsamples = 3\nvalue = [1, 2]"] ;
808 -> 809 ;
810 [label="gini = 0.0\nsamples = 1\nvalue = [1, 0]"] ;
809 -> 810 ;
811 [label="gini = 0.0\nsamples = 2\nvalue = [0, 2]"] ;
809 -> 811 ;
812 [label="gini = 0.0\nsamples = 4\nvalue = [4, 0]"] ;
808 -> 812 ;
813 [label="gini = 0.0\nsamples = 3\nvalue = [0, 3]"] ;
807 -> 813 ;
814 [label="X[0] <= 76996232.0\ngini = 0.4819\nsamples = 200\nvalue = [81, 119]"] ;
780 -> 814 ;
815 [label="X[8] <= 80740432.0\ngini = 0.4984\nsamples = 70\nvalue = [37, 33]"] ;
814 -> 815 ;
816 [label="X[4] <= 107287472.0\ngini = 0.4814\nsamples = 57\nvalue = [34, 23]"] ;
815 -> 816 ;
817 [label="X[6] <= 82083152.0\ngini = 0.3084\nsamples = 21\nvalue = [17, 4]"] ;
816 -> 817 ;
818 [label="X[6] <= 80646992.0\ngini = 0.5\nsamples = 6\nvalue = [3, 3]"] ;
817 -> 818 ;
819 [label="gini = 0.0\nsamples = 3\nvalue = [3, 0]"] ;
818 -> 819 ;
820 [label="gini = 0.0\nsamples = 3\nvalue = [0, 3]"] ;
818 -> 820 ;
821 [label="X[1] <= 97322368.0\ngini = 0.1244\nsamples = 15\nvalue = [14, 1]"] ;
817 -> 821 ;
822 [label="gini = 0.0\nsamples = 14\nvalue = [14, 0]"] ;
821 -> 822 ;
823 [label="gini = 0.0\nsamples = 1\nvalue = [0, 1]"] ;
821 -> 823 ;
824 [label="X[4] <= 120590768.0\ngini = 0.4985\nsamples = 36\nvalue = [17, 19]"] ;
816 -> 824 ;
825 [label="X[8] <= 75623424.0\ngini = 0.1653\nsamples = 11\nvalue = [1, 10]"] ;
824 -> 825 ;
826 [label="gini = 0.0\nsamples = 10\nvalue = [0, 10]"] ;
825 -> 826 ;
827 [label="gini = 0.0\nsamples = 1\nvalue = [1, 0]"] ;
825 -> 827 ;
828 [label="X[4] <= 127050896.0\ngini = 0.4608\nsamples = 25\nvalue = [16, 9]"] ;
824 -> 828 ;
829 [label="gini = 0.0\nsamples = 9\nvalue = [9, 0]"] ;
828 -> 829 ;
830 [label="X[7] <= 69089584.0\ngini = 0.4922\nsamples = 16\nvalue = [7, 9]"] ;
828 -> 830 ;
831 [label="gini = 0.0\nsamples = 6\nvalue = [0, 6]"] ;
830 -> 831 ;
832 [label="X[0] <= 72504296.0\ngini = 0.42\nsamples = 10\nvalue = [7, 3]"] ;
830 -> 832 ;
833 [label="gini = 0.0\nsamples = 7\nvalue = [7, 0]"] ;
832 -> 833 ;
834 [label="gini = 0.0\nsamples = 3\nvalue = [0, 3]"] ;
832 -> 834 ;
835 [label="X[6] <= 71698656.0\ngini = 0.355\nsamples = 13\nvalue = [3, 10]"] ;
815 -> 835 ;
836 [label="X[2] <= 77744800.0\ngini = 0.375\nsamples = 4\nvalue = [3, 1]"] ;
835 -> 836 ;
837 [label="gini = 0.0\nsamples = 1\nvalue = [0, 1]"] ;
836 -> 837 ;
838 [label="gini = 0.0\nsamples = 3\nvalue = [3, 0]"] ;
836 -> 838 ;
839 [label="gini = 0.0\nsamples = 9\nvalue = [0, 9]"] ;
835 -> 839 ;
840 [label="X[10] <= 99795280.0\ngini = 0.4478\nsamples = 130\nvalue = [44, 86]"] ;
814 -> 840 ;
841 [label="X[10] <= 99545232.0\ngini = 0.375\nsamples = 8\nvalue = [6, 2]"] ;
840 -> 841 ;
842 [label="X[5] <= 103056272.0\ngini = 0.4444\nsamples = 3\nvalue = [1, 2]"] ;
841 -> 842 ;
843 [label="gini = 0.0\nsamples = 2\nvalue = [0, 2]"] ;
842 -> 843 ;
844 [label="gini = 0.0\nsamples = 1\nvalue = [1, 0]"] ;
842 -> 844 ;
845 [label="gini = 0.0\nsamples = 5\nvalue = [5, 0]"] ;
841 -> 845 ;
846 [label="X[25] <= 0.5\ngini = 0.4289\nsamples = 122\nvalue = [38, 84]"] ;
840 -> 846 ;
847 [label="X[1] <= 76966992.0\ngini = 0.4123\nsamples = 117\nvalue = [34, 83]"] ;
846 -> 847 ;
848 [label="X[9] <= 115229184.0\ngini = 0.4861\nsamples = 12\nvalue = [7, 5]"] ;
847 -> 848 ;
849 [label="X[11] <= 77419824.0\ngini = 0.4082\nsamples = 7\nvalue = [2, 5]"] ;
848 -> 849 ;
850 [label="gini = 0.0\nsamples = 4\nvalue = [0, 4]"] ;
849 -> 850 ;
851 [label="X[6] <= 99375840.0\ngini = 0.4444\nsamples = 3\nvalue = [2, 1]"] ;
849 -> 851 ;
852 [label="gini = 0.0\nsamples = 2\nvalue = [2, 0]"] ;
851 -> 852 ;
853 [label="gini = 0.0\nsamples = 1\nvalue = [0, 1]"] ;
851 -> 853 ;
854 [label="gini = 0.0\nsamples = 5\nvalue = [5, 0]"] ;
848 -> 854 ;
855 [label="X[6] <= 91292088.0\ngini = 0.382\nsamples = 105\nvalue = [27, 78]"] ;
847 -> 855 ;
856 [label="X[24] <= 0.5\ngini = 0.2741\nsamples = 61\nvalue = [10, 51]"] ;
855 -> 856 ;
857 [label="X[13] <= 71042736.0\ngini = 0.2344\nsamples = 59\nvalue = [8, 51]"] ;
856 -> 857 ;
858 [label="X[6] <= 74630776.0\ngini = 0.48\nsamples = 5\nvalue = [3, 2]"] ;
857 -> 858 ;
859 [label="gini = 0.0\nsamples = 3\nvalue = [3, 0]"] ;
858 -> 859 ;
860 [label="gini = 0.0\nsamples = 2\nvalue = [0, 2]"] ;
858 -> 860 ;
861 [label="X[5] <= 64553904.0\ngini = 0.168\nsamples = 54\nvalue = [5, 49]"] ;
857 -> 861 ;
862 [label="X[4] <= 112329024.0\ngini = 0.4444\nsamples = 3\nvalue = [2, 1]"] ;
861 -> 862 ;
863 [label="gini = 0.0\nsamples = 1\nvalue = [0, 1]"] ;
862 -> 863 ;
864 [label="gini = 0.0\nsamples = 2\nvalue = [2, 0]"] ;
862 -> 864 ;
865 [label="X[2] <= 80817552.0\ngini = 0.1107\nsamples = 51\nvalue = [3, 48]"] ;
861 -> 865 ;
866 [label="X[13] <= 106947632.0\ngini = 0.0768\nsamples = 50\nvalue = [2, 48]"] ;
865 -> 866 ;
867 [label="X[12] <= 90931664.0\ngini = 0.0408\nsamples = 48\nvalue = [1, 47]"] ;
866 -> 867 ;
868 [label="gini = 0.0\nsamples = 42\nvalue = [0, 42]"] ;
867 -> 868 ;
869 [label="X[0] <= 83635680.0\ngini = 0.2778\nsamples = 6\nvalue = [1, 5]"] ;
867 -> 869 ;
870 [label="gini = 0.0\nsamples = 1\nvalue = [1, 0]"] ;
869 -> 870 ;
871 [label="gini = 0.0\nsamples = 5\nvalue = [0, 5]"] ;
869 -> 871 ;
872 [label="X[19] <= 0.5\ngini = 0.5\nsamples = 2\nvalue = [1, 1]"] ;
866 -> 872 ;
873 [label="gini = 0.0\nsamples = 1\nvalue = [0, 1]"] ;
872 -> 873 ;
874 [label="gini = 0.0\nsamples = 1\nvalue = [1, 0]"] ;
872 -> 874 ;
875 [label="gini = 0.0\nsamples = 1\nvalue = [1, 0]"] ;
865 -> 875 ;
876 [label="gini = 0.0\nsamples = 2\nvalue = [2, 0]"] ;
856 -> 876 ;
877 [label="X[6] <= 95113248.0\ngini = 0.4742\nsamples = 44\nvalue = [17, 27]"] ;
855 -> 877 ;
878 [label="X[7] <= 91856928.0\ngini = 0.1653\nsamples = 11\nvalue = [10, 1]"] ;
877 -> 878 ;
879 [label="gini = 0.0\nsamples = 10\nvalue = [10, 0]"] ;
878 -> 879 ;
880 [label="gini = 0.0\nsamples = 1\nvalue = [0, 1]"] ;
878 -> 880 ;
881 [label="X[27] <= 0.5\ngini = 0.3343\nsamples = 33\nvalue = [7, 26]"] ;
877 -> 881 ;
882 [label="X[5] <= 89735152.0\ngini = 0.2706\nsamples = 31\nvalue = [5, 26]"] ;
881 -> 882 ;
883 [label="X[0] <= 107624592.0\ngini = 0.0799\nsamples = 24\nvalue = [1, 23]"] ;
882 -> 883 ;
884 [label="gini = 0.0\nsamples = 23\nvalue = [0, 23]"] ;
883 -> 884 ;
885 [label="gini = 0.0\nsamples = 1\nvalue = [1, 0]"] ;
883 -> 885 ;
886 [label="X[8] <= 71739136.0\ngini = 0.4898\nsamples = 7\nvalue = [4, 3]"] ;
882 -> 886 ;
887 [label="gini = 0.0\nsamples = 3\nvalue = [3, 0]"] ;
886 -> 887 ;
888 [label="X[13] <= 98829208.0\ngini = 0.375\nsamples = 4\nvalue = [1, 3]"] ;
886 -> 888 ;
889 [label="gini = 0.0\nsamples = 1\nvalue = [1, 0]"] ;
888 -> 889 ;
890 [label="gini = 0.0\nsamples = 3\nvalue = [0, 3]"] ;
888 -> 890 ;
891 [label="gini = 0.0\nsamples = 2\nvalue = [2, 0]"] ;
881 -> 891 ;
892 [label="X[4] <= 94508288.0\ngini = 0.32\nsamples = 5\nvalue = [4, 1]"] ;
846 -> 892 ;
893 [label="gini = 0.0\nsamples = 1\nvalue = [0, 1]"] ;
892 -> 893 ;
894 [label="gini = 0.0\nsamples = 4\nvalue = [4, 0]"] ;
892 -> 894 ;
895 [label="X[0] <= 122409952.0\ngini = 0.4821\nsamples = 37\nvalue = [22, 15]"] ;
767 -> 895 ;
896 [label="X[2] <= 70809040.0\ngini = 0.375\nsamples = 28\nvalue = [21, 7]"] ;
895 -> 896 ;
897 [label="X[12] <= 66332840.0\ngini = 0.32\nsamples = 5\nvalue = [1, 4]"] ;
896 -> 897 ;
898 [label="gini = 0.0\nsamples = 1\nvalue = [1, 0]"] ;
897 -> 898 ;
899 [label="gini = 0.0\nsamples = 4\nvalue = [0, 4]"] ;
897 -> 899 ;
900 [label="X[19] <= 0.5\ngini = 0.2268\nsamples = 23\nvalue = [20, 3]"] ;
896 -> 900 ;
901 [label="X[11] <= 70589472.0\ngini = 0.095\nsamples = 20\nvalue = [19, 1]"] ;
900 -> 901 ;
902 [label="gini = 0.0\nsamples = 1\nvalue = [0, 1]"] ;
901 -> 902 ;
903 [label="gini = 0.0\nsamples = 19\nvalue = [19, 0]"] ;
901 -> 903 ;
904 [label="X[5] <= 68404248.0\ngini = 0.4444\nsamples = 3\nvalue = [1, 2]"] ;
900 -> 904 ;
905 [label="gini = 0.0\nsamples = 1\nvalue = [1, 0]"] ;
904 -> 905 ;
906 [label="gini = 0.0\nsamples = 2\nvalue = [0, 2]"] ;
904 -> 906 ;
907 [label="X[5] <= 90222416.0\ngini = 0.1975\nsamples = 9\nvalue = [1, 8]"] ;
895 -> 907 ;
908 [label="gini = 0.0\nsamples = 8\nvalue = [0, 8]"] ;
907 -> 908 ;
909 [label="gini = 0.0\nsamples = 1\nvalue = [1, 0]"] ;
907 -> 909 ;
910 [label="X[10] <= 99681152.0\ngini = 0.4951\nsamples = 957\nvalue = [526, 431]"] ;
716 -> 910 ;
911 [label="X[6] <= 75395312.0\ngini = 0.142\nsamples = 13\nvalue = [1, 12]"] ;
910 -> 911 ;
912 [label="gini = 0.0\nsamples = 1\nvalue = [1, 0]"] ;
911 -> 912 ;
913 [label="gini = 0.0\nsamples = 12\nvalue = [0, 12]"] ;
911 -> 913 ;
914 [label="X[11] <= 106164704.0\ngini = 0.4937\nsamples = 944\nvalue = [525, 419]"] ;
910 -> 914 ;
915 [label="X[6] <= 116144448.0\ngini = 0.4752\nsamples = 440\nvalue = [269, 171]"] ;
914 -> 915 ;
916 [label="X[0] <= 118303416.0\ngini = 0.4677\nsamples = 421\nvalue = [264, 157]"] ;
915 -> 916 ;
917 [label="X[11] <= 100741664.0\ngini = 0.4594\nsamples = 400\nvalue = [257, 143]"] ;
916 -> 917 ;
918 [label="X[11] <= 100361184.0\ngini = 0.4766\nsamples = 314\nvalue = [191, 123]"] ;
917 -> 918 ;
919 [label="X[35] <= 0.5\ngini = 0.4661\nsamples = 292\nvalue = [184, 108]"] ;
918 -> 919 ;
920 [label="X[12] <= 66208776.0\ngini = 0.4565\nsamples = 278\nvalue = [180, 98]"] ;
919 -> 920 ;
921 [label="X[3] <= 123492688.0\ngini = 0.4992\nsamples = 50\nvalue = [24, 26]"] ;
920 -> 921 ;
922 [label="X[13] <= 98608080.0\ngini = 0.48\nsamples = 40\nvalue = [16, 24]"] ;
921 -> 922 ;
923 [label="X[7] <= 94674232.0\ngini = 0.3935\nsamples = 26\nvalue = [7, 19]"] ;
922 -> 923 ;
924 [label="X[0] <= 66793736.0\ngini = 0.2873\nsamples = 23\nvalue = [4, 19]"] ;
923 -> 924 ;
925 [label="X[4] <= 127305864.0\ngini = 0.48\nsamples = 5\nvalue = [3, 2]"] ;
924 -> 925 ;
926 [label="gini = 0.0\nsamples = 3\nvalue = [3, 0]"] ;
925 -> 926 ;
927 [label="gini = 0.0\nsamples = 2\nvalue = [0, 2]"] ;
925 -> 927 ;
928 [label="X[1] <= 86454464.0\ngini = 0.1049\nsamples = 18\nvalue = [1, 17]"] ;
924 -> 928 ;
929 [label="gini = 0.0\nsamples = 1\nvalue = [1, 0]"] ;
928 -> 929 ;
930 [label="gini = 0.0\nsamples = 17\nvalue = [0, 17]"] ;
928 -> 930 ;
931 [label="gini = 0.0\nsamples = 3\nvalue = [3, 0]"] ;
923 -> 931 ;
932 [label="X[12] <= 65695344.0\ngini = 0.4592\nsamples = 14\nvalue = [9, 5]"] ;
922 -> 932 ;
933 [label="X[11] <= 96945848.0\ngini = 0.1975\nsamples = 9\nvalue = [8, 1]"] ;
932 -> 933 ;
934 [label="gini = 0.0\nsamples = 8\nvalue = [8, 0]"] ;
933 -> 934 ;
935 [label="gini = 0.0\nsamples = 1\nvalue = [0, 1]"] ;
933 -> 935 ;
936 [label="X[2] <= 72971112.0\ngini = 0.32\nsamples = 5\nvalue = [1, 4]"] ;
932 -> 936 ;
937 [label="gini = 0.0\nsamples = 1\nvalue = [1, 0]"] ;
936 -> 937 ;
938 [label="gini = 0.0\nsamples = 4\nvalue = [0, 4]"] ;
936 -> 938 ;
939 [label="X[0] <= 80954752.0\ngini = 0.32\nsamples = 10\nvalue = [8, 2]"] ;
921 -> 939 ;
940 [label="gini = 0.0\nsamples = 7\nvalue = [7, 0]"] ;
939 -> 940 ;
941 [label="X[8] <= 75758472.0\ngini = 0.4444\nsamples = 3\nvalue = [1, 2]"] ;
939 -> 941 ;
942 [label="gini = 0.0\nsamples = 1\nvalue = [1, 0]"] ;
941 -> 942 ;
943 [label="gini = 0.0\nsamples = 2\nvalue = [0, 2]"] ;
941 -> 943 ;
944 [label="X[12] <= 84115768.0\ngini = 0.4321\nsamples = 228\nvalue = [156, 72]"] ;
920 -> 944 ;
945 [label="X[8] <= 95548048.0\ngini = 0.3432\nsamples = 100\nvalue = [78, 22]"] ;
944 -> 945 ;
946 [label="X[4] <= 127993056.0\ngini = 0.315\nsamples = 97\nvalue = [78, 19]"] ;
945 -> 946 ;
947 [label="X[7] <= 62974444.0\ngini = 0.2825\nsamples = 94\nvalue = [78, 16]"] ;
946 -> 947 ;
948 [label="gini = 0.0\nsamples = 2\nvalue = [0, 2]"] ;
947 -> 948 ;
949 [label="X[33] <= 0.5\ngini = 0.258\nsamples = 92\nvalue = [78, 14]"] ;
947 -> 949 ;
950 [label="X[0] <= 67383024.0\ngini = 0.2333\nsamples = 89\nvalue = [77, 12]"] ;
949 -> 950 ;
951 [label="X[8] <= 80695872.0\ngini = 0.48\nsamples = 10\nvalue = [6, 4]"] ;
950 -> 951 ;
952 [label="X[6] <= 88645736.0\ngini = 0.2449\nsamples = 7\nvalue = [6, 1]"] ;
951 -> 952 ;
953 [label="gini = 0.0\nsamples = 6\nvalue = [6, 0]"] ;
952 -> 953 ;
954 [label="gini = 0.0\nsamples = 1\nvalue = [0, 1]"] ;
952 -> 954 ;
955 [label="gini = 0.0\nsamples = 3\nvalue = [0, 3]"] ;
951 -> 955 ;
956 [label="X[8] <= 68019408.0\ngini = 0.182\nsamples = 79\nvalue = [71, 8]"] ;
950 -> 956 ;
957 [label="gini = 0.0\nsamples = 1\nvalue = [0, 1]"] ;
956 -> 957 ;
958 [label="X[34] <= 0.5\ngini = 0.1634\nsamples = 78\nvalue = [71, 7]"] ;
956 -> 958 ;
959 [label="X[11] <= 87365360.0\ngini = 0.1437\nsamples = 77\nvalue = [71, 6]"] ;
958 -> 959 ;
960 [label="X[12] <= 77133040.0\ngini = 0.42\nsamples = 10\nvalue = [7, 3]"] ;
959 -> 960 ;
961 [label="X[6] <= 79198144.0\ngini = 0.48\nsamples = 5\nvalue = [2, 3]"] ;
960 -> 961 ;
962 [label="gini = 0.0\nsamples = 2\nvalue = [2, 0]"] ;
961 -> 962 ;
963 [label="gini = 0.0\nsamples = 3\nvalue = [0, 3]"] ;
961 -> 963 ;
964 [label="gini = 0.0\nsamples = 5\nvalue = [5, 0]"] ;
960 -> 964 ;
965 [label="X[0] <= 109795608.0\ngini = 0.0855\nsamples = 67\nvalue = [64, 3]"] ;
959 -> 965 ;
966 [label="X[15] <= 0.5\ngini = 0.0322\nsamples = 61\nvalue = [60, 1]"] ;
965 -> 966 ;
967 [label="gini = 0.0\nsamples = 57\nvalue = [57, 0]"] ;
966 -> 967 ;
968 [label="gini = 0.375\nsamples = 4\nvalue = [3, 1]"] ;
966 -> 968 ;
969 [label="X[9] <= 117217896.0\ngini = 0.4444\nsamples = 6\nvalue = [4, 2]"] ;
965 -> 969 ;
970 [label="gini = 0.0\nsamples = 4\nvalue = [4, 0]"] ;
969 -> 970 ;
971 [label="gini = 0.0\nsamples = 2\nvalue = [0, 2]"] ;
969 -> 971 ;
972 [label="gini = 0.0\nsamples = 1\nvalue = [0, 1]"] ;
958 -> 972 ;
973 [label="X[11] <= 97056104.0\ngini = 0.4444\nsamples = 3\nvalue = [1, 2]"] ;
949 -> 973 ;
974 [label="gini = 0.0\nsamples = 2\nvalue = [0, 2]"] ;
973 -> 974 ;
975 [label="gini = 0.0\nsamples = 1\nvalue = [1, 0]"] ;
973 -> 975 ;
976 [label="gini = 0.0\nsamples = 3\nvalue = [0, 3]"] ;
946 -> 976 ;
977 [label="gini = 0.0\nsamples = 3\nvalue = [0, 3]"] ;
945 -> 977 ;
978 [label="X[12] <= 84476192.0\ngini = 0.4761\nsamples = 128\nvalue = [78, 50]"] ;
944 -> 978 ;
979 [label="X[9] <= 126535984.0\ngini = 0.4444\nsamples = 21\nvalue = [7, 14]"] ;
978 -> 979 ;
980 [label="X[10] <= 117885440.0\ngini = 0.3878\nsamples = 19\nvalue = [5, 14]"] ;
979 -> 980 ;
981 [label="X[9] <= 110148320.0\ngini = 0.5\nsamples = 8\nvalue = [4, 4]"] ;
980 -> 981 ;
982 [label="X[31] <= 0.5\ngini = 0.32\nsamples = 5\nvalue = [1, 4]"] ;
981 -> 982 ;
983 [label="gini = 0.0\nsamples = 4\nvalue = [0, 4]"] ;
982 -> 983 ;
984 [label="gini = 0.0\nsamples = 1\nvalue = [1, 0]"] ;
982 -> 984 ;
985 [label="gini = 0.0\nsamples = 3\nvalue = [3, 0]"] ;
981 -> 985 ;
986 [label="X[13] <= 106405224.0\ngini = 0.1653\nsamples = 11\nvalue = [1, 10]"] ;
980 -> 986 ;
987 [label="gini = 0.0\nsamples = 10\nvalue = [0, 10]"] ;
986 -> 987 ;
988 [label="gini = 0.0\nsamples = 1\nvalue = [1, 0]"] ;
986 -> 988 ;
989 [label="gini = 0.0\nsamples = 2\nvalue = [2, 0]"] ;
979 -> 989 ;
990 [label="X[2] <= 80817552.0\ngini = 0.4465\nsamples = 107\nvalue = [71, 36]"] ;
978 -> 990 ;
991 [label="X[2] <= 77523760.0\ngini = 0.4668\nsamples = 97\nvalue = [61, 36]"] ;
990 -> 991 ;
992 [label="X[2] <= 73767408.0\ngini = 0.3878\nsamples = 57\nvalue = [42, 15]"] ;
991 -> 992 ;
993 [label="X[2] <= 73466488.0\ngini = 0.4592\nsamples = 42\nvalue = [27, 15]"] ;
992 -> 993 ;
994 [label="X[13] <= 76687960.0\ngini = 0.4178\nsamples = 37\nvalue = [26, 11]"] ;
993 -> 994 ;
995 [label="gini = 0.0\nsamples = 2\nvalue = [0, 2]"] ;
994 -> 995 ;
996 [label="X[9] <= 96507688.0\ngini = 0.382\nsamples = 35\nvalue = [26, 9]"] ;
994 -> 996 ;
997 [label="gini = 0.0\nsamples = 2\nvalue = [0, 2]"] ;
996 -> 997 ;
998 [label="X[12] <= 89985160.0\ngini = 0.3343\nsamples = 33\nvalue = [26, 7]"] ;
996 -> 998 ;
999 [label="X[9] <= 126207856.0\ngini = 0.4567\nsamples = 17\nvalue = [11, 6]"] ;
998 -> 999 ;
1000 [label="X[8] <= 67526784.0\ngini = 0.3367\nsamples = 14\nvalue = [11, 3]"] ;
999 -> 1000 ;
1001 [label="gini = 0.0\nsamples = 2\nvalue = [0, 2]"] ;
1000 -> 1001 ;
1002 [label="gini = 0.1528\nsamples = 12\nvalue = [11, 1]"] ;
1000 -> 1002 ;
1003 [label="gini = 0.0\nsamples = 3\nvalue = [0, 3]"] ;
999 -> 1003 ;
1004 [label="X[3] <= 123652008.0\ngini = 0.1172\nsamples = 16\nvalue = [15, 1]"] ;
998 -> 1004 ;
1005 [label="gini = 0.0\nsamples = 15\nvalue = [15, 0]"] ;
1004 -> 1005 ;
1006 [label="gini = 0.0\nsamples = 1\nvalue = [0, 1]"] ;
1004 -> 1006 ;
1007 [label="X[6] <= 78696416.0\ngini = 0.32\nsamples = 5\nvalue = [1, 4]"] ;
993 -> 1007 ;
1008 [label="gini = 0.0\nsamples = 1\nvalue = [1, 0]"] ;
1007 -> 1008 ;
1009 [label="gini = 0.0\nsamples = 4\nvalue = [0, 4]"] ;
1007 -> 1009 ;
1010 [label="gini = 0.0\nsamples = 15\nvalue = [15, 0]"] ;
992 -> 1010 ;
1011 [label="X[9] <= 107043704.0\ngini = 0.4988\nsamples = 40\nvalue = [19, 21]"] ;
991 -> 1011 ;
1012 [label="X[2] <= 77692944.0\ngini = 0.3967\nsamples = 11\nvalue = [8, 3]"] ;
1011 -> 1012 ;
1013 [label="gini = 0.0\nsamples = 2\nvalue = [0, 2]"] ;
1012 -> 1013 ;
1014 [label="X[12] <= 87166832.0\ngini = 0.1975\nsamples = 9\nvalue = [8, 1]"] ;
1012 -> 1014 ;
1015 [label="gini = 0.0\nsamples = 1\nvalue = [0, 1]"] ;
1014 -> 1015 ;
1016 [label="gini = 0.0\nsamples = 8\nvalue = [8, 0]"] ;
1014 -> 1016 ;
1017 [label="X[12] <= 85001280.0\ngini = 0.4709\nsamples = 29\nvalue = [11, 18]"] ;
1011 -> 1017 ;
1018 [label="gini = 0.0\nsamples = 4\nvalue = [4, 0]"] ;
1017 -> 1018 ;
1019 [label="X[6] <= 73723952.0\ngini = 0.4032\nsamples = 25\nvalue = [7, 18]"] ;
1017 -> 1019 ;
1020 [label="X[13] <= 81122288.0\ngini = 0.4688\nsamples = 8\nvalue = [5, 3]"] ;
1019 -> 1020 ;
1021 [label="gini = 0.0\nsamples = 3\nvalue = [0, 3]"] ;
1020 -> 1021 ;
1022 [label="gini = 0.0\nsamples = 5\nvalue = [5, 0]"] ;
1020 -> 1022 ;
1023 [label="X[6] <= 99445968.0\ngini = 0.2076\nsamples = 17\nvalue = [2, 15]"] ;
1019 -> 1023 ;
1024 [label="gini = 0.0\nsamples = 14\nvalue = [0, 14]"] ;
1023 -> 1024 ;
1025 [label="X[1] <= 97275648.0\ngini = 0.4444\nsamples = 3\nvalue = [2, 1]"] ;
1023 -> 1025 ;
1026 [label="gini = 0.0\nsamples = 1\nvalue = [0, 1]"] ;
1025 -> 1026 ;
1027 [label="gini = 0.0\nsamples = 2\nvalue = [2, 0]"] ;
1025 -> 1027 ;
1028 [label="gini = 0.0\nsamples = 10\nvalue = [10, 0]"] ;
990 -> 1028 ;
1029 [label="X[11] <= 87482904.0\ngini = 0.4082\nsamples = 14\nvalue = [4, 10]"] ;
919 -> 1029 ;
1030 [label="gini = 0.0\nsamples = 3\nvalue = [3, 0]"] ;
1029 -> 1030 ;
1031 [label="X[9] <= 126475584.0\ngini = 0.1653\nsamples = 11\nvalue = [1, 10]"] ;
1029 -> 1031 ;
1032 [label="gini = 0.0\nsamples = 10\nvalue = [0, 10]"] ;
1031 -> 1032 ;
1033 [label="gini = 0.0\nsamples = 1\nvalue = [1, 0]"] ;
1031 -> 1033 ;
1034 [label="X[4] <= 111401040.0\ngini = 0.4339\nsamples = 22\nvalue = [7, 15]"] ;
918 -> 1034 ;
1035 [label="gini = 0.0\nsamples = 12\nvalue = [0, 12]"] ;
1034 -> 1035 ;
1036 [label="X[3] <= 114583944.0\ngini = 0.42\nsamples = 10\nvalue = [7, 3]"] ;
1034 -> 1036 ;
1037 [label="gini = 0.0\nsamples = 6\nvalue = [6, 0]"] ;
1036 -> 1037 ;
1038 [label="X[6] <= 70935568.0\ngini = 0.375\nsamples = 4\nvalue = [1, 3]"] ;
1036 -> 1038 ;
1039 [label="gini = 0.0\nsamples = 1\nvalue = [1, 0]"] ;
1038 -> 1039 ;
1040 [label="gini = 0.0\nsamples = 3\nvalue = [0, 3]"] ;
1038 -> 1040 ;
1041 [label="X[13] <= 71045136.0\ngini = 0.3569\nsamples = 86\nvalue = [66, 20]"] ;
917 -> 1041 ;
1042 [label="gini = 0.0\nsamples = 2\nvalue = [0, 2]"] ;
1041 -> 1042 ;
1043 [label="X[4] <= 126934448.0\ngini = 0.3367\nsamples = 84\nvalue = [66, 18]"] ;
1041 -> 1043 ;
1044 [label="X[2] <= 72556816.0\ngini = 0.2866\nsamples = 75\nvalue = [62, 13]"] ;
1043 -> 1044 ;
1045 [label="gini = 0.0\nsamples = 19\nvalue = [19, 0]"] ;
1044 -> 1045 ;
1046 [label="X[4] <= 97722256.0\ngini = 0.3565\nsamples = 56\nvalue = [43, 13]"] ;
1044 -> 1046 ;
1047 [label="X[12] <= 84067216.0\ngini = 0.497\nsamples = 13\nvalue = [7, 6]"] ;
1046 -> 1047 ;
1048 [label="gini = 0.0\nsamples = 5\nvalue = [5, 0]"] ;
1047 -> 1048 ;
1049 [label="X[10] <= 128043568.0\ngini = 0.375\nsamples = 8\nvalue = [2, 6]"] ;
1047 -> 1049 ;
1050 [label="gini = 0.0\nsamples = 5\nvalue = [0, 5]"] ;
1049 -> 1050 ;
1051 [label="X[4] <= 92039760.0\ngini = 0.4444\nsamples = 3\nvalue = [2, 1]"] ;
1049 -> 1051 ;
1052 [label="gini = 0.0\nsamples = 2\nvalue = [2, 0]"] ;
1051 -> 1052 ;
1053 [label="gini = 0.0\nsamples = 1\nvalue = [0, 1]"] ;
1051 -> 1053 ;
1054 [label="X[9] <= 126762880.0\ngini = 0.2726\nsamples = 43\nvalue = [36, 7]"] ;
1046 -> 1054 ;
1055 [label="X[5] <= 117042544.0\ngini = 0.2188\nsamples = 40\nvalue = [35, 5]"] ;
1054 -> 1055 ;
1056 [label="X[20] <= 0.5\ngini = 0.1841\nsamples = 39\nvalue = [35, 4]"] ;
1055 -> 1056 ;
1057 [label="X[8] <= 93125024.0\ngini = 0.1454\nsamples = 38\nvalue = [35, 3]"] ;
1056 -> 1057 ;
1058 [label="X[28] <= 0.5\ngini = 0.1049\nsamples = 36\nvalue = [34, 2]"] ;
1057 -> 1058 ;
1059 [label="X[2] <= 72887384.0\ngini = 0.0571\nsamples = 34\nvalue = [33, 1]"] ;
1058 -> 1059 ;
1060 [label="X[9] <= 108809136.0\ngini = 0.5\nsamples = 2\nvalue = [1, 1]"] ;
1059 -> 1060 ;
1061 [label="gini = 0.0\nsamples = 1\nvalue = [1, 0]"] ;
1060 -> 1061 ;
1062 [label="gini = 0.0\nsamples = 1\nvalue = [0, 1]"] ;
1060 -> 1062 ;
1063 [label="gini = 0.0\nsamples = 32\nvalue = [32, 0]"] ;
1059 -> 1063 ;
1064 [label="X[1] <= 108540992.0\ngini = 0.5\nsamples = 2\nvalue = [1, 1]"] ;
1058 -> 1064 ;
1065 [label="gini = 0.0\nsamples = 1\nvalue = [0, 1]"] ;
1064 -> 1065 ;
1066 [label="gini = 0.0\nsamples = 1\nvalue = [1, 0]"] ;
1064 -> 1066 ;
1067 [label="X[8] <= 99483696.0\ngini = 0.5\nsamples = 2\nvalue = [1, 1]"] ;
1057 -> 1067 ;
1068 [label="gini = 0.0\nsamples = 1\nvalue = [0, 1]"] ;
1067 -> 1068 ;
1069 [label="gini = 0.0\nsamples = 1\nvalue = [1, 0]"] ;
1067 -> 1069 ;
1070 [label="gini = 0.0\nsamples = 1\nvalue = [0, 1]"] ;
1056 -> 1070 ;
1071 [label="gini = 0.0\nsamples = 1\nvalue = [0, 1]"] ;
1055 -> 1071 ;
1072 [label="X[10] <= 130127504.0\ngini = 0.4444\nsamples = 3\nvalue = [1, 2]"] ;
1054 -> 1072 ;
1073 [label="gini = 0.0\nsamples = 2\nvalue = [0, 2]"] ;
1072 -> 1073 ;
1074 [label="gini = 0.0\nsamples = 1\nvalue = [1, 0]"] ;
1072 -> 1074 ;
1075 [label="X[13] <= 103896736.0\ngini = 0.4938\nsamples = 9\nvalue = [4, 5]"] ;
1043 -> 1075 ;
1076 [label="X[5] <= 113973424.0\ngini = 0.2778\nsamples = 6\nvalue = [1, 5]"] ;
1075 -> 1076 ;
1077 [label="gini = 0.0\nsamples = 5\nvalue = [0, 5]"] ;
1076 -> 1077 ;
1078 [label="gini = 0.0\nsamples = 1\nvalue = [1, 0]"] ;
1076 -> 1078 ;
1079 [label="gini = 0.0\nsamples = 3\nvalue = [3, 0]"] ;
1075 -> 1079 ;
1080 [label="X[0] <= 122891872.0\ngini = 0.4444\nsamples = 21\nvalue = [7, 14]"] ;
916 -> 1080 ;
1081 [label="X[6] <= 71191128.0\ngini = 0.142\nsamples = 13\nvalue = [1, 12]"] ;
1080 -> 1081 ;
1082 [label="gini = 0.0\nsamples = 1\nvalue = [1, 0]"] ;
1081 -> 1082 ;
1083 [label="gini = 0.0\nsamples = 12\nvalue = [0, 12]"] ;
1081 -> 1083 ;
1084 [label="X[1] <= 102710832.0\ngini = 0.375\nsamples = 8\nvalue = [6, 2]"] ;
1080 -> 1084 ;
1085 [label="gini = 0.0\nsamples = 2\nvalue = [0, 2]"] ;
1084 -> 1085 ;
1086 [label="gini = 0.0\nsamples = 6\nvalue = [6, 0]"] ;
1084 -> 1086 ;
1087 [label="X[7] <= 64086172.0\ngini = 0.3878\nsamples = 19\nvalue = [5, 14]"] ;
915 -> 1087 ;
1088 [label="gini = 0.0\nsamples = 2\nvalue = [2, 0]"] ;
1087 -> 1088 ;
1089 [label="X[1] <= 86220984.0\ngini = 0.2907\nsamples = 17\nvalue = [3, 14]"] ;
1087 -> 1089 ;
1090 [label="X[7] <= 78771376.0\ngini = 0.4444\nsamples = 3\nvalue = [2, 1]"] ;
1089 -> 1090 ;
1091 [label="gini = 0.0\nsamples = 2\nvalue = [2, 0]"] ;
1090 -> 1091 ;
1092 [label="gini = 0.0\nsamples = 1\nvalue = [0, 1]"] ;
1090 -> 1092 ;
1093 [label="X[3] <= 108442512.0\ngini = 0.1327\nsamples = 14\nvalue = [1, 13]"] ;
1089 -> 1093 ;
1094 [label="gini = 0.0\nsamples = 13\nvalue = [0, 13]"] ;
1093 -> 1094 ;
1095 [label="gini = 0.0\nsamples = 1\nvalue = [1, 0]"] ;
1093 -> 1095 ;
1096 [label="X[11] <= 117677008.0\ngini = 0.4999\nsamples = 504\nvalue = [256, 248]"] ;
914 -> 1096 ;
1097 [label="X[11] <= 117440544.0\ngini = 0.4873\nsamples = 188\nvalue = [79, 109]"] ;
1096 -> 1097 ;
1098 [label="X[4] <= 124929144.0\ngini = 0.4966\nsamples = 170\nvalue = [78, 92]"] ;
1097 -> 1098 ;
1099 [label="X[28] <= 0.5\ngini = 0.4999\nsamples = 142\nvalue = [72, 70]"] ;
1098 -> 1099 ;
1100 [label="X[7] <= 69334152.0\ngini = 0.4978\nsamples = 135\nvalue = [72, 63]"] ;
1099 -> 1100 ;
1101 [label="X[5] <= 89167712.0\ngini = 0.3967\nsamples = 22\nvalue = [6, 16]"] ;
1100 -> 1101 ;
1102 [label="X[19] <= 0.5\ngini = 0.1327\nsamples = 14\nvalue = [1, 13]"] ;
1101 -> 1102 ;
1103 [label="gini = 0.0\nsamples = 13\nvalue = [0, 13]"] ;
1102 -> 1103 ;
1104 [label="gini = 0.0\nsamples = 1\nvalue = [1, 0]"] ;
1102 -> 1104 ;
1105 [label="X[5] <= 101245808.0\ngini = 0.4688\nsamples = 8\nvalue = [5, 3]"] ;
1101 -> 1105 ;
1106 [label="gini = 0.0\nsamples = 4\nvalue = [4, 0]"] ;
1105 -> 1106 ;
1107 [label="X[4] <= 118046960.0\ngini = 0.375\nsamples = 4\nvalue = [1, 3]"] ;
1105 -> 1107 ;
1108 [label="gini = 0.0\nsamples = 3\nvalue = [0, 3]"] ;
1107 -> 1108 ;
1109 [label="gini = 0.0\nsamples = 1\nvalue = [1, 0]"] ;
1107 -> 1109 ;
1110 [label="X[24] <= 0.5\ngini = 0.4859\nsamples = 113\nvalue = [66, 47]"] ;
1100 -> 1110 ;
1111 [label="X[0] <= 80230200.0\ngini = 0.4744\nsamples = 106\nvalue = [65, 41]"] ;
1110 -> 1111 ;
1112 [label="X[12] <= 72631144.0\ngini = 0.3389\nsamples = 37\nvalue = [29, 8]"] ;
1111 -> 1112 ;
1113 [label="gini = 0.0\nsamples = 11\nvalue = [11, 0]"] ;
1112 -> 1113 ;
1114 [label="X[11] <= 111941648.0\ngini = 0.426\nsamples = 26\nvalue = [18, 8]"] ;
1112 -> 1114 ;
1115 [label="X[3] <= 117648240.0\ngini = 0.1528\nsamples = 12\nvalue = [11, 1]"] ;
1114 -> 1115 ;
1116 [label="gini = 0.0\nsamples = 11\nvalue = [11, 0]"] ;
1115 -> 1116 ;
1117 [label="gini = 0.0\nsamples = 1\nvalue = [0, 1]"] ;
1115 -> 1117 ;
1118 [label="X[3] <= 111452112.0\ngini = 0.5\nsamples = 14\nvalue = [7, 7]"] ;
1114 -> 1118 ;
1119 [label="X[2] <= 78739504.0\ngini = 0.2778\nsamples = 6\nvalue = [1, 5]"] ;
1118 -> 1119 ;
1120 [label="gini = 0.0\nsamples = 5\nvalue = [0, 5]"] ;
1119 -> 1120 ;
1121 [label="gini = 0.0\nsamples = 1\nvalue = [1, 0]"] ;
1119 -> 1121 ;
1122 [label="X[4] <= 121902112.0\ngini = 0.375\nsamples = 8\nvalue = [6, 2]"] ;
1118 -> 1122 ;
1123 [label="X[33] <= 0.5\ngini = 0.2449\nsamples = 7\nvalue = [6, 1]"] ;
1122 -> 1123 ;
1124 [label="gini = 0.0\nsamples = 6\nvalue = [6, 0]"] ;
1123 -> 1124 ;
1125 [label="gini = 0.0\nsamples = 1\nvalue = [0, 1]"] ;
1123 -> 1125 ;
1126 [label="gini = 0.0\nsamples = 1\nvalue = [0, 1]"] ;
1122 -> 1126 ;
1127 [label="X[1] <= 108695728.0\ngini = 0.4991\nsamples = 69\nvalue = [36, 33]"] ;
1111 -> 1127 ;
1128 [label="X[13] <= 111336496.0\ngini = 0.32\nsamples = 15\nvalue = [12, 3]"] ;
1127 -> 1128 ;
1129 [label="X[1] <= 88104192.0\ngini = 0.1528\nsamples = 12\nvalue = [11, 1]"] ;
1128 -> 1129 ;
1130 [label="gini = 0.0\nsamples = 1\nvalue = [0, 1]"] ;
1129 -> 1130 ;
1131 [label="gini = 0.0\nsamples = 11\nvalue = [11, 0]"] ;
1129 -> 1131 ;
1132 [label="X[10] <= 123341984.0\ngini = 0.4444\nsamples = 3\nvalue = [1, 2]"] ;
1128 -> 1132 ;
1133 [label="gini = 0.0\nsamples = 2\nvalue = [0, 2]"] ;
1132 -> 1133 ;
1134 [label="gini = 0.0\nsamples = 1\nvalue = [1, 0]"] ;
1132 -> 1134 ;
1135 [label="X[1] <= 110184632.0\ngini = 0.4938\nsamples = 54\nvalue = [24, 30]"] ;
1127 -> 1135 ;
1136 [label="gini = 0.0\nsamples = 7\nvalue = [0, 7]"] ;
1135 -> 1136 ;
1137 [label="X[10] <= 110359608.0\ngini = 0.4998\nsamples = 47\nvalue = [24, 23]"] ;
1135 -> 1137 ;
1138 [label="X[6] <= 119055432.0\ngini = 0.1975\nsamples = 9\nvalue = [1, 8]"] ;
1137 -> 1138 ;
1139 [label="gini = 0.0\nsamples = 8\nvalue = [0, 8]"] ;
1138 -> 1139 ;
1140 [label="gini = 0.0\nsamples = 1\nvalue = [1, 0]"] ;
1138 -> 1140 ;
1141 [label="X[8] <= 85885064.0\ngini = 0.4778\nsamples = 38\nvalue = [23, 15]"] ;
1137 -> 1141 ;
1142 [label="X[3] <= 104878272.0\ngini = 0.4297\nsamples = 32\nvalue = [22, 10]"] ;
1141 -> 1142 ;
1143 [label="X[8] <= 67949864.0\ngini = 0.2659\nsamples = 19\nvalue = [16, 3]"] ;
1142 -> 1143 ;
1144 [label="gini = 0.0\nsamples = 2\nvalue = [0, 2]"] ;
1143 -> 1144 ;
1145 [label="X[11] <= 117235888.0\ngini = 0.1107\nsamples = 17\nvalue = [16, 1]"] ;
1143 -> 1145 ;
1146 [label="gini = 0.0\nsamples = 16\nvalue = [16, 0]"] ;
1145 -> 1146 ;
1147 [label="gini = 0.0\nsamples = 1\nvalue = [0, 1]"] ;
1145 -> 1147 ;
1148 [label="X[13] <= 95243616.0\ngini = 0.497\nsamples = 13\nvalue = [6, 7]"] ;
1142 -> 1148 ;
1149 [label="X[7] <= 105045824.0\ngini = 0.3457\nsamples = 9\nvalue = [2, 7]"] ;
1148 -> 1149 ;
1150 [label="gini = 0.0\nsamples = 7\nvalue = [0, 7]"] ;
1149 -> 1150 ;
1151 [label="gini = 0.0\nsamples = 2\nvalue = [2, 0]"] ;
1149 -> 1151 ;
1152 [label="gini = 0.0\nsamples = 4\nvalue = [4, 0]"] ;
1148 -> 1152 ;
1153 [label="X[6] <= 102083696.0\ngini = 0.2778\nsamples = 6\nvalue = [1, 5]"] ;
1141 -> 1153 ;
1154 [label="gini = 0.0\nsamples = 5\nvalue = [0, 5]"] ;
1153 -> 1154 ;
1155 [label="gini = 0.0\nsamples = 1\nvalue = [1, 0]"] ;
1153 -> 1155 ;
1156 [label="X[7] <= 112913056.0\ngini = 0.2449\nsamples = 7\nvalue = [1, 6]"] ;
1110 -> 1156 ;
1157 [label="gini = 0.0\nsamples = 6\nvalue = [0, 6]"] ;
1156 -> 1157 ;
1158 [label="gini = 0.0\nsamples = 1\nvalue = [1, 0]"] ;
1156 -> 1158 ;
1159 [label="gini = 0.0\nsamples = 7\nvalue = [0, 7]"] ;
1099 -> 1159 ;
1160 [label="X[4] <= 127970712.0\ngini = 0.3367\nsamples = 28\nvalue = [6, 22]"] ;
1098 -> 1160 ;
1161 [label="X[2] <= 68518168.0\ngini = 0.0997\nsamples = 19\nvalue = [1, 18]"] ;
1160 -> 1161 ;
1162 [label="gini = 0.0\nsamples = 1\nvalue = [1, 0]"] ;
1161 -> 1162 ;
1163 [label="gini = 0.0\nsamples = 18\nvalue = [0, 18]"] ;
1161 -> 1163 ;
1164 [label="X[12] <= 87369936.0\ngini = 0.4938\nsamples = 9\nvalue = [5, 4]"] ;
1160 -> 1164 ;
1165 [label="X[6] <= 77571520.0\ngini = 0.4082\nsamples = 7\nvalue = [5, 2]"] ;
1164 -> 1165 ;
1166 [label="gini = 0.0\nsamples = 4\nvalue = [4, 0]"] ;
1165 -> 1166 ;
1167 [label="X[2] <= 71061480.0\ngini = 0.4444\nsamples = 3\nvalue = [1, 2]"] ;
1165 -> 1167 ;
1168 [label="gini = 0.0\nsamples = 2\nvalue = [0, 2]"] ;
1167 -> 1168 ;
1169 [label="gini = 0.0\nsamples = 1\nvalue = [1, 0]"] ;
1167 -> 1169 ;
1170 [label="gini = 0.0\nsamples = 2\nvalue = [0, 2]"] ;
1164 -> 1170 ;
1171 [label="X[2] <= 80867216.0\ngini = 0.1049\nsamples = 18\nvalue = [1, 17]"] ;
1097 -> 1171 ;
1172 [label="gini = 0.0\nsamples = 17\nvalue = [0, 17]"] ;
1171 -> 1172 ;
1173 [label="gini = 0.0\nsamples = 1\nvalue = [1, 0]"] ;
1171 -> 1173 ;
1174 [label="X[11] <= 131072496.0\ngini = 0.4928\nsamples = 316\nvalue = [177, 139]"] ;
1096 -> 1174 ;
1175 [label="X[11] <= 130561504.0\ngini = 0.489\nsamples = 303\nvalue = [174, 129]"] ;
1174 -> 1175 ;
1176 [label="X[7] <= 97845856.0\ngini = 0.4934\nsamples = 287\nvalue = [160, 127]"] ;
1175 -> 1176 ;
1177 [label="X[7] <= 77595672.0\ngini = 0.4844\nsamples = 238\nvalue = [140, 98]"] ;
1176 -> 1177 ;
1178 [label="X[9] <= 130694544.0\ngini = 0.4984\nsamples = 157\nvalue = [83, 74]"] ;
1177 -> 1178 ;
1179 [label="X[3] <= 114108016.0\ngini = 0.4844\nsamples = 119\nvalue = [70, 49]"] ;
1178 -> 1179 ;
1180 [label="X[7] <= 76459968.0\ngini = 0.3615\nsamples = 38\nvalue = [29, 9]"] ;
1179 -> 1180 ;
1181 [label="X[21] <= 0.5\ngini = 0.2571\nsamples = 33\nvalue = [28, 5]"] ;
1180 -> 1181 ;
1182 [label="X[3] <= 74326592.0\ngini = 0.2188\nsamples = 32\nvalue = [28, 4]"] ;
1181 -> 1182 ;
1183 [label="gini = 0.0\nsamples = 1\nvalue = [0, 1]"] ;
1182 -> 1183 ;
1184 [label="X[9] <= 89196848.0\ngini = 0.1748\nsamples = 31\nvalue = [28, 3]"] ;
1182 -> 1184 ;
1185 [label="gini = 0.0\nsamples = 1\nvalue = [0, 1]"] ;
1184 -> 1185 ;
1186 [label="X[5] <= 116478384.0\ngini = 0.1244\nsamples = 30\nvalue = [28, 2]"] ;
1184 -> 1186 ;
1187 [label="X[12] <= 64371564.0\ngini = 0.0689\nsamples = 28\nvalue = [27, 1]"] ;
1186 -> 1187 ;
1188 [label="X[10] <= 120735520.0\ngini = 0.5\nsamples = 2\nvalue = [1, 1]"] ;
1187 -> 1188 ;
1189 [label="gini = 0.0\nsamples = 1\nvalue = [1, 0]"] ;
1188 -> 1189 ;
1190 [label="gini = 0.0\nsamples = 1\nvalue = [0, 1]"] ;
1188 -> 1190 ;
1191 [label="gini = 0.0\nsamples = 26\nvalue = [26, 0]"] ;
1187 -> 1191 ;
1192 [label="X[8] <= 78155880.0\ngini = 0.5\nsamples = 2\nvalue = [1, 1]"] ;
1186 -> 1192 ;
1193 [label="gini = 0.0\nsamples = 1\nvalue = [0, 1]"] ;
1192 -> 1193 ;
1194 [label="gini = 0.0\nsamples = 1\nvalue = [1, 0]"] ;
1192 -> 1194 ;
1195 [label="gini = 0.0\nsamples = 1\nvalue = [0, 1]"] ;
1181 -> 1195 ;
1196 [label="X[0] <= 85650472.0\ngini = 0.32\nsamples = 5\nvalue = [1, 4]"] ;
1180 -> 1196 ;
1197 [label="gini = 0.0\nsamples = 4\nvalue = [0, 4]"] ;
1196 -> 1197 ;
1198 [label="gini = 0.0\nsamples = 1\nvalue = [1, 0]"] ;
1196 -> 1198 ;
1199 [label="X[11] <= 118341392.0\ngini = 0.4999\nsamples = 81\nvalue = [41, 40]"] ;
1179 -> 1199 ;
1200 [label="gini = 0.0\nsamples = 5\nvalue = [5, 0]"] ;
1199 -> 1200 ;
1201 [label="X[0] <= 66927288.0\ngini = 0.4986\nsamples = 76\nvalue = [36, 40]"] ;
1199 -> 1201 ;
1202 [label="gini = 0.0\nsamples = 6\nvalue = [0, 6]"] ;
1201 -> 1202 ;
1203 [label="X[2] <= 68599176.0\ngini = 0.4996\nsamples = 70\nvalue = [36, 34]"] ;
1201 -> 1203 ;
1204 [label="X[11] <= 118714048.0\ngini = 0.2975\nsamples = 11\nvalue = [9, 2]"] ;
1203 -> 1204 ;
1205 [label="gini = 0.0\nsamples = 2\nvalue = [0, 2]"] ;
1204 -> 1205 ;
1206 [label="gini = 0.0\nsamples = 9\nvalue = [9, 0]"] ;
1204 -> 1206 ;
1207 [label="X[3] <= 127018896.0\ngini = 0.4964\nsamples = 59\nvalue = [27, 32]"] ;
1203 -> 1207 ;
1208 [label="X[4] <= 118733040.0\ngini = 0.4968\nsamples = 50\nvalue = [27, 23]"] ;
1207 -> 1208 ;
1209 [label="X[9] <= 119625616.0\ngini = 0.375\nsamples = 12\nvalue = [3, 9]"] ;
1208 -> 1209 ;
1210 [label="X[0] <= 73016944.0\ngini = 0.48\nsamples = 5\nvalue = [3, 2]"] ;
1209 -> 1210 ;
1211 [label="gini = 0.0\nsamples = 2\nvalue = [0, 2]"] ;
1210 -> 1211 ;
1212 [label="gini = 0.0\nsamples = 3\nvalue = [3, 0]"] ;
1210 -> 1212 ;
1213 [label="gini = 0.0\nsamples = 7\nvalue = [0, 7]"] ;
1209 -> 1213 ;
1214 [label="X[11] <= 124093760.0\ngini = 0.4654\nsamples = 38\nvalue = [24, 14]"] ;
1208 -> 1214 ;
1215 [label="X[7] <= 63829156.0\ngini = 0.4953\nsamples = 31\nvalue = [17, 14]"] ;
1214 -> 1215 ;
1216 [label="gini = 0.0\nsamples = 5\nvalue = [0, 5]"] ;
1215 -> 1216 ;
1217 [label="X[11] <= 123352264.0\ngini = 0.4527\nsamples = 26\nvalue = [17, 9]"] ;
1215 -> 1217 ;
1218 [label="X[4] <= 128091656.0\ngini = 0.3856\nsamples = 23\nvalue = [17, 6]"] ;
1217 -> 1218 ;
